-1.9562663147407628 0.35629167913911081 2.613691453088157 -2.9051367498532774 -2.5774676826327454 -0.047464196256988979 0.30169144737702652 -1.9036412761636994 3.1941082867898043 2.4782351894739931 
2.2618794146726118 0.035938142655979763 0.59235123587798966 1.0644441927318815 0.58867663614319554 -0.18033471085850578 2.0753585325856405 -0.21997469207550166 3.1198640612548876 1.6336713210409202 
0.37850784707936519 2.5666188451334273 -2.5573165175829726 3.6926523133341802 -1.4734412295492163 3.0293359306912344 -3.1634582342734783 -3.6345884131282067 -5.9612862627659018 2.0595976819141009 
-1.3437553256020141 -2.5815152216768453 -2.7500674336569482 -4.5467233307891579 -0.69391618337631567 4.6149807530796245 3.5156614853528887 -1.3088540236530835 -4.855977000605975 0.54339022417735983 
-0.25151202204117018 -0.88158442313152019 5.3880406914660322 -1.0397156771964833 -3.7079814277708434 0.69344638259342573 -2.8395598841938825 -0.23659108316434105 0.10109746857629241 -0.28029554770927245 
0.37550959067751033 -0.5766118413664566 1.0264849861175669 0.0016156091087805374 3.7669676962664642 -3.0599193166560941 0.073790765787841786 -2.8831904371538806 1.7857311399243154 -2.8867215467826952 
0.9455330921689673 0.41112164411139801 0.66421005271254696 0.66557685431800417 1.479779681012644 0.21126553876500051 0.91658053085782931 0.2749487874006023 4.0483217716815352 1.4926787610270831 
2.2600417170104099 1.027252443853345 1.1459632842557737 1.3906728298187918 1.2100906228280397 0.27936958877932583 1.8883357001484891 1.5349855564774182 3.0788765167190957 0.89577483575071715 
-4.7579736354240785 4.7934502136421226 3.6323708643223305 -2.9608638676866463 -2.9823846975568626 1.4855568229280562 4.6659785543396186 -3.3520225623717423 -2.6723883847573875 -3.0871911185213343 
-2.6885933641309769 -3.6686318490868479 -2.1590003187102949 0.48366520952397407 5.1946204508098788 0.67145420817562929 6.2001513067746847 -1.1473066248938173 0.29695616412732506 -5.1822224023109102 
2.7446357502233076 -1.7381007907862935 2.6249535824631978 -1.0566128324929778 0.55581808158047485 3.7704808549483495 -2.7570254777857892 0.95561962742333684 -0.25865635449041952 -2.9098941158300988 
2.2503342778746069 0.26468753676053819 0.16255624781360661 1.2647004726059747 1.5279452316834972 -0.93730199119141855 1.8188446958830409 0.08323406581031681 3.3379996300154584 1.5025762605916655 
1.1882869164547263 1.3796521087510283 0.67266850819183788 1.6248982949284607 0.93197464788041251 0.169975941879245 0.99741705624566457 0.26896441165005752 3.3309175123296462 0.33260187672873104 
-2.3954402218577946 -3.9862710010684195 -0.24033988491340097 -4.2147064908034366 4.588091085279955 -3.6429581501084511 -1.2705314897211124 5.6674351093199196 -4.8058429179590485 6.2448065602085352 
1.7301155213469237 2.55884969143229 -5.0969709817647892 4.0771028904491162 -4.2306317068027735 0.42328967308990406 0.26875124680603463 0.31706230623191362 -4.1005928063134798 0.89454241463915596 
-3.2891814317576809 2.8710726259700028 -4.2371086667064661 3.7623415813795842 -0.055246501085348017 3.8392102931127514 -3.6202901857114438 3.073668470594388 4.2166474422042084 -2.3935076055982836 
-1.2800092633911775 0.54555030529821902 1.1598768969043345 1.2114274720814624 1.2250479032615922 -1.1768693669560921 -1.7266552418185266 5.6060034610542777 -1.1754818852828306 -4.7028555151858287 
6.0218409199991534 0.99973560552682972 -2.707346104287184 -1.691698199670767 1.0714156604550447 -3.0673505558087406 1.1354982137771938 2.7106666919255082 1.4237019867456795 -1.5995616482332611 
-3.7180664496386999 0.86213683435020327 3.2438575389140198 6.043019559564395 -1.1185268643952939 -3.0004378112072931 -3.5195969721117408 5.2241668317919094 -4.1543516954663771 -5.7580750536160865 
1.6777687215568051 0.27698577991491286 0.7030301503895231 2.0028800792368155 0.76000386767050732 -1.2746401063160064 1.6448233473961245 0.52737505084154712 2.9596944420950817 1.356603295262675 
1.6255316249667731 0.045685775069032569 -2.1265173197569842 -6.3657244072162129 -1.0348113228829092 7.4141075569169486 -1.1097141823915762 1.1474970102991453 -4.2198632630378059 -1.4605017080471814 
1.1194524462896096 2.3557731591986273 0.49527820313344884 0.65820237614112265 1.9432176691125298 -0.078130663371103984 1.8841246194697263 -0.54869823097080417 2.0720962126371947 0.74607750485277657 
1.9162045695476124 -0.10953474789666098 -0.10186482449705511 0.25205904186456524 2.1270170211042903 -0.74003046392951544 1.2205834334938965 0.51741606729006195 3.349454398426992 1.7139696568866771 
-3.6463533651335207 -0.03436019545988675 -2.466631078923665 -1.3340153506825696 -1.3560968369392756 4.6161630887420664 1.4249474240188424 2.6916989023966296 2.2164095939573456 0.12807176044574764 
2.289104043711101 1.005819544045649 4.2476941775533854 -2.8224722658805681 -2.4147598215642558 0.51954587937608476 -1.0178981650407593 2.3204949913228416 -3.7434226290235717 -3.1310140392826828 
1.4277917675137701 6.8337783128848626 -0.4390293233558788 -2.3532900030542714 3.0051482489902206 -3.6203011282812545 -0.57886595028204313 0.6179594524272829 -3.7073957291127857 0.48646349052625759 
1.4585937516085794 -2.8557360401459211 1.9849648241158513 1.1154814940659612 -1.7376003302948873 -2.0886909171586332 0.95376562686443911 -2.0863687975087291 1.2473439838983531 2.6310923360916951 
-2.3060513111013745 2.9002348834964757 -2.5687439720401932 -1.2784706836243513 -2.6497525396442905 -3.7948082363477313 3.3620822494496214 2.4003313066475247 -2.4045011039160533 3.7109951577399993 
0.1184593025739476 -0.88492475524017744 1.4528836989523435 -0.29239821313454867 2.0874315569619641 -0.69220149114585572 -0.74194819997461681 -1.4174396253783523 3.4191769035261892 3.0343250779981505 
2.3500168631808451 -1.1958267609846014 2.6362826503090271 2.8230503088896315 -5.486752020849484 1.0743745681311045 0.80067111416572434 -2.6151850059660062 -0.1567946474937684 3.5229342992457418 
-3.2346843140521662 -1.3084209931646611 0.91200600323508807 2.4178007565242905 4.9054070024735008 2.752319183382872 -4.8133181845977466 -2.6507149564303281 -2.1248165640477064 2.5381025859457358 
-0.29431108000992734 -2.2493001674842503 -1.9414735046533784 4.2667668209841709 1.6252412457559444 -0.15451939184899641 -1.0923240924176121 -2.0709493088843596 0.37323617818002458 1.3236903823577 
-0.59999999999999998 0.40000000000000002 0.59999999999999998 0.20000000000000001 0.80000000000000004 -0.40000000000000002 -0 -0.59999999999999998 -0 -0.40000000000000002 -0.20000000000000001 -0.40000000000000002 0.40000000000000002 0.40000000000000002 0.40000000000000002 0.80000000000000004 -0.40000000000000002 -0.80000000000000004 -0.59999999999999998 0.20000000000000001 0.80000000000000004 -0.20000000000000001 -0.80000000000000004 0.59999999999999998 0 -0.59999999999999998 0.20000000000000001 0.20000000000000001 0.40000000000000002 0.20000000000000001 0 -0.80000000000000004 
0.20000000000000001 -0.20000000000000001 -0.59999999999999998 0.80000000000000004 0.40000000000000002 -0.80000000000000004 0.80000000000000004 0.59999999999999998 -0.40000000000000002 -0.20000000000000001 0.59999999999999998 0.59999999999999998 -0.80000000000000004 0.40000000000000002 -0.20000000000000001 0.80000000000000004 -0.20000000000000001 -0.80000000000000004 0 -0.80000000000000004 0.40000000000000002 0.40000000000000002 0.40000000000000002 -0.40000000000000002 0.20000000000000001 0.20000000000000001 -0 -0.80000000000000004 -0 -0.20000000000000001 0.40000000000000002 0.20000000000000001 
-0.80000000000000004 -0.40000000000000002 0.40000000000000002 0.20000000000000001 0.20000000000000001 0.80000000000000004 0.59999999999999998 -0.40000000000000002 -0.59999999999999998 -0 0.59999999999999998 -0 0.20000000000000001 0.59999999999999998 0.20000000000000001 0.20000000000000001 -0.80000000000000004 -0.80000000000000004 0.20000000000000001 0.59999999999999998 0.80000000000000004 0.80000000000000004 -0.40000000000000002 0.59999999999999998 0.40000000000000002 -0.80000000000000004 0.40000000000000002 -0.40000000000000002 -0 0.80000000000000004 0.59999999999999998 -0.80000000000000004 
0 -0.59999999999999998 0.59999999999999998 -0.59999999999999998 0.20000000000000001 0.59999999999999998 -0.59999999999999998 0.20000000000000001 -0.80000000000000004 -0.59999999999999998 -0.80000000000000004 -0.40000000000000002 0.80000000000000004 0 -0 0.40000000000000002 0.80000000000000004 -0 -0.80000000000000004 0.80000000000000004 0.40000000000000002 -0.40000000000000002 0 0.59999999999999998 -0.40000000000000002 0.80000000000000004 -0.20000000000000001 0 0.20000000000000001 0 0.20000000000000001 0.59999999999999998 
-0 -0.80000000000000004 0.40000000000000002 -0.59999999999999998 -0.40000000000000002 -0.80000000000000004 0.40000000000000002 -0 -0.40000000000000002 0.80000000000000004 0.59999999999999998 0.59999999999999998 0.20000000000000001 0.59999999999999998 0 0.80000000000000004 -0.80000000000000004 0.80000000000000004 -0.59999999999999998 0 -0.20000000000000001 0.80000000000000004 0 0.20000000000000001 -0.20000000000000001 -0 -0.80000000000000004 0.40000000000000002 0.59999999999999998 -0.80000000000000004 0.20000000000000001 -0.40000000000000002 
0.20000000000000001 0.59999999999999998 0.20000000000000001 -0.80000000000000004 0.20000000000000001 0.80000000000000004 -0 -0 0.40000000000000002 -0.80000000000000004 0 -0.40000000000000002 0.20000000000000001 0 0.40000000000000002 0.40000000000000002 0 -0.40000000000000002 0 0.59999999999999998 0.59999999999999998 0.80000000000000004 0.80000000000000004 -0.80000000000000004 0.40000000000000002 0.80000000000000004 -0.80000000000000004 -0.59999999999999998 0 0 0.80000000000000004 0.59999999999999998 
-0.20000000000000001 0.80000000000000004 0.20000000000000001 -0.20000000000000001 0.80000000000000004 -0.40000000000000002 0.80000000000000004 -0.40000000000000002 -0.59999999999999998 -0.40000000000000002 -0.59999999999999998 -0.20000000000000001 -0.59999999999999998 0.59999999999999998 -0.59999999999999998 0 -0.40000000000000002 -0.59999999999999998 -0 -0.59999999999999998 0.80000000000000004 0.59999999999999998 -0.59999999999999998 0.59999999999999998 0.20000000000000001 -0.40000000000000002 -0 -0.40000000000000002 0.20000000000000001 0.80000000000000004 0 -0.59999999999999998 
-0 0.20000000000000001 -0.80000000000000004 0.80000000000000004 0.80000000000000004 0.59999999999999998 0 -0.40000000000000002 0.80000000000000004 0 0.80000000000000004 -0 -0.80000000000000004 0.80000000000000004 -0 0.59999999999999998 0.40000000000000002 0.59999999999999998 -0.80000000000000004 -0.40000000000000002 0.40000000000000002 0.59999999999999998 0.80000000000000004 0.40000000000000002 -0.20000000000000001 0.20000000000000001 0.20000000000000001 -0 0.59999999999999998 -0.20000000000000001 0 -0.20000000000000001 
0.40000000000000002 -0 -0.80000000000000004 -0.80000000000000004 -0 -0.40000000000000002 -0 0.20000000000000001 0.20000000000000001 -0.59999999999999998 0.20000000000000001 0.40000000000000002 0.20000000000000001 0.20000000000000001 -0.40000000000000002 -0.40000000000000002 0.80000000000000004 0.40000000000000002 -0.40000000000000002 -0 0.80000000000000004 0 0 -0.40000000000000002 -0.59999999999999998 0 -0.20000000000000001 0.20000000000000001 -0.80000000000000004 -0 -0.40000000000000002 0 
-0.59999999999999998 -0.59999999999999998 0.80000000000000004 -0.40000000000000002 0.40000000000000002 -0.20000000000000001 -0 -0.59999999999999998 -0 0.80000000000000004 0.40000000000000002 -0.59999999999999998 -0 -0.40000000000000002 0.80000000000000004 0.40000000000000002 -0.59999999999999998 0.20000000000000001 0.40000000000000002 0.40000000000000002 0.40000000000000002 -0.20000000000000001 0.80000000000000004 0.40000000000000002 0.20000000000000001 0.40000000000000002 0.80000000000000004 0.59999999999999998 -0.20000000000000001 0.20000000000000001 -0.20000000000000001 0.20000000000000001 
0.59999999999999998 0.59999999999999998 0 -0.40000000000000002 0.40000000000000002 0.20000000000000001 0.20000000000000001 -0.40000000000000002 0.40000000000000002 0.80000000000000004 0.40000000000000002 0.20000000000000001 0.59999999999999998 -0.59999999999999998 0.80000000000000004 0 0.20000000000000001 0 -0.80000000000000004 -0.59999999999999998 0 0.40000000000000002 0.40000000000000002 0.59999999999999998 0.20000000000000001 0.20000000000000001 0.59999999999999998 0.80000000000000004 -0.80000000000000004 0.40000000000000002 -0.59999999999999998 0 
-0.80000000000000004 0.20000000000000001 0.40000000000000002 0.59999999999999998 -0.59999999999999998 0 -0 -0.40000000000000002 0.59999999999999998 -0 0 0.20000000000000001 0.59999999999999998 0.80000000000000004 0.80000000000000004 0 0.59999999999999998 -0 -0 0.80000000000000004 -0.40000000000000002 -0.59999999999999998 0.20000000000000001 0 0.20000000000000001 -0 0.20000000000000001 -0.40000000000000002 0.80000000000000004 0 -0.40000000000000002 0.80000000000000004 
0.59997608772525446 0.59986592671047678 -0.59999999687669692 -0.00061121099590051434 0.60588903427384455 0.79932843734367032 0.39999942388808574 0.39999721084595108 0.39979663805313614 0.7992674029705007 -0.59970919663474065 -4.9019980696693832e-07 0.79999999159735768 0.40564296935504918 -0.20013357249733768 0.60050262181234793 0.40000264731477125 0.80004667554590225 -0.19793356975469609 -5.2863260731477753e-08 -0.20000123367449066 -0.80002383672988275 0.19999999705317695 0.59999891076192102 -0.40000667190206657 -0.59999014361857617 0.39444574028327384 -0.80285357823896508 -0.7999999412614357 -0.19868881651692208 0.60412051261099964 0.40000182964234698 
-0.80026663978109269 0.19970642442632933 0.20000000683170671 -0.80092927198109654 0.012823189103152517 0.79853078060259131 0.19999873867125861 -0.6000061079581076 -0.2004526433517245 0.40141878755547239 0.40063713085721564 0.39999895998304247 0.19999998138080011 0.012695509843382014 -0.00029252475419997846 0.0011005970132350396 -0.59999323266988014 0.80264440214227251 0.20447996306260469 -1.5154852516471771e-07 0.39999729889889213 0.3999483134878371 0.19999999735997701 0.79999761729062935 0.39985530583558659 0.40002191973271728 0.7870902945320678 0.1937267425284403 -0.39999986749346256 0.0026662450279336569 -0.39094704295620752 -0.59999263676041115 
-0.80023845280304828 -0.8000000014486377 0.39999999999193142 -0.19954478409483314 0.59992013900197161 0.4000014146542642 1.7548047793973956e-10 -7.4838365015083688e-10 -8.1800483245109269e-06 -0.79663606571254464 0.20000041370255905 0.40000003711393328 -0.60000000024516309 0.00037763474597442997 0.19999994764845894 0.60000003178410677 -0.39999891988160063 0.40282898085478847 -4.9861186788638555e-05 0.59999996016566393 2.4550978884431211e-10 0.40000056498043773 0.60000000424258682 0.60000000261112008 -0.40014475971524943 -0.39999962425330859 0.79916785063483531 -0.20002771463425237 4.3280863866007066e-09 -0.80022789728174104 0.60003389091310055 -0.59999626435275288 
-9.9355334603431473e-06 0.79999999993964022 -0.20000000000033621 -0.39998103267061808 -0.40000332754158463 -0.39999994105607245 0.20000000000731166 -0.60000000003118259 0.79999965916465321 0.200140163928644 -0.19999998276239331 -0.79999999845358616 0.59999999998978482 -0.59998426521891779 -2.1813142113485047e-09 0.80000000132433779 4.500493330723947e-08 0.40011787420228284 -0.40000207754944955 0.39999999834023614 0.60000000001022946 0.80000002354085187 -0.19999999982322558 1.0879667876341055e-10 0.79999396834519798 0.40000001565611215 -0.20003467289021518 0.39999884522357287 0.40000000018033688 -0.80000949572007263 0.8000014121213791 1.5565196862721097e-07 
0.20000000000000001 0 0.20000000000000001 -0.40000000000000002 -0.80000000000000004 0.20000000000000001 -0.40000000000000002 0 0 0 -0.80000000000000004 0.20000000000000001 0.20000000000000001 -0 -0.59999999999999998 -0.80000000000000004 0.40000000000000002 0.80000000000000004 0.80000000000000004 -0.40000000000000002 -0.80000000000000004 -0 0.80000000000000004 0.80000000000000004 0 -0.20000000000000001 -0.59999999999999998 0.80000000000000004 0.40000000000000002 0.59999999999999998 -0.80000000000000004 0.20000000000000001 
0.80000000000000004 0.59999999999999998 0.40000000000000002 -0.59999999999999998 0.80000000000000004 0 -0.59999999999999998 0 -0.59999999999999998 -0.20000000000000001 0.40000000000000002 0 0.20000000000000001 0.59999999999999998 0 0 0.40000000000000002 -0.80000000000000004 0.80000000000000004 -0.80000000000000004 -0.20000000000000001 -0.59999999999999998 0.59999999999999998 -0.80000000000000004 0.20000000000000001 0.20000000000000001 0.40000000000000002 -0.40000000000000002 -0.40000000000000002 0.20000000000000001 -0.80000000000000004 -0.59999999999999998 
-0.59999999999999998 0.40000000000000002 -0.59999999999999998 0.40000000000000002 -0.59999999999999998 -0.20000000000000001 0.20000000000000001 0.20000000000000001 0 -0 0 -0.80000000000000004 0.59999999999999998 0.40000000000000002 0.80000000000000004 0.20000000000000001 0 0.20000000000000001 0.80000000000000004 0.59999999999999998 -0.59999999999999998 0.59999999999999998 0 0 0.59999999999999998 0.59999999999999998 -0.20000000000000001 0.80000000000000004 0 -0 -0.80000000000000004 -0.80000000000000004 
0.80000000000000004 0.80000000000000004 0.59999999999999998 0.59999999999999998 -0.40000000000000002 -0.80000000000000004 0.80000000000000004 0.80000000000000004 0.40000000000000002 0.20000000000000001 0.80000000000000004 0.20000000000000001 0.20000000000000001 -0.59999999999999998 -0.40000000000000002 0.59999999999999998 0.80000000000000004 0.80000000000000004 -0.80000000000000004 0.80000000000000004 0.59999999999999998 -0.40000000000000002 0 -0.59999999999999998 -0.80000000000000004 0 0.40000000000000002 0.80000000000000004 0.40000000000000002 0.40000000000000002 0.80000000000000004 0 
0.80000000000000004 -0.40000000000000002 -0.59999999999999998 0.40000000000000002 0.40000000000000002 -0.59999999999999998 -0.20000000000000001 -0.59999999999999998 0 -0.40000000000000002 0.80000000000000004 -0.80000000000000004 -0.59999999999999998 0.59999999999999998 -0.20000000000000001 0.40000000000000002 0.40000000000000002 0.20000000000000001 -0 0.80000000000000004 -0.59999999999999998 0.59999999999999998 0.40000000000000002 -0.20000000000000001 0.80000000000000004 -0.20000000000000001 0.80000000000000004 0 0.20000000000000001 -0.80000000000000004 -0.20000000000000001 0.40000000000000002 
0 0.59999999999999998 -0.20000000000000001 -0.40000000000000002 0.59999999999999998 -0 0.80000000000000004 -0.59999999999999998 0.80000000000000004 -0.80000000000000004 0 -0.40000000000000002 0.40000000000000002 0.59999999999999998 0.80000000000000004 0.59999999999999998 -0.59999999999999998 0.80000000000000004 0.20000000000000001 0.59999999999999998 0 0.20000000000000001 0.20000000000000001 0.59999999999999998 0.20000000000000001 0 -0.20000000000000001 0.20000000000000001 0.59999999999999998 0 -0.20000000000000001 0.80000000000000004 
0.20000000000000001 0.40000000000000002 -0.59999999999999998 0.80000000000000004 0 -0.40000000000000002 0.80000000000000004 0.59999999999999998 -0 0.40000000000000002 0.40000000000000002 0.20000000000000001 0.80000000000000004 0.59999999999999998 -0.40000000000000002 0.20000000000000001 0.80000000000000004 0 -0.59999999999999998 0.80000000000000004 -0.20000000000000001 0.20000000000000001 0.80000000000000004 -0 0.40000000000000002 0.80000000000000004 -0.40000000000000002 0.80000000000000004 -0.20000000000000001 0.20000000000000001 -0.59999999999999998 -0.80000000000000004 
0.59999999999999998 -0.59999999999999998 -0.40000000000000002 -0.59999999999999998 0.59999999999999998 0 -0.59999999999999998 0.59999999999999998 -0.59999999999999998 0 -0 -0.40000000000000002 0.59999999999999998 -0.40000000000000002 -0.59999999999999998 -0.40000000000000002 0.40000000000000002 -0.20000000000000001 -0.40000000000000002 0.40000000000000002 -0.59999999999999998 0.40000000000000002 0 -0.40000000000000002 0.80000000000000004 -0.20000000000000001 0.80000000000000004 0 -0.59999999999999998 0.59999999999999998 0 0.20000000000000001 
-0 -0 -0.59999999999999998 0.80000000000000004 0.80000000000000004 0.20000000000000001 0 -0 -0 -0.40000000000000002 -0.80000000000000004 -0.40000000000000002 0.20000000000000001 0 -0.59999999999999998 0.40000000000000002 0.20000000000000001 -0.40000000000000002 0.80000000000000004 -0 -0.40000000000000002 0 0.80000000000000004 -0 0.59999999999999998 -0.80000000000000004 -0.80000000000000004 0.59999999999999998 0.40000000000000002 0.20000000000000001 0.40000000000000002 0.40000000000000002 
-0.80000000000000004 0.20000000000000001 -0.80000000000000004 0.80000000000000004 0 0.20000000000000001 -0.59999999999999998 0.40000000000000002 0.40000000000000002 -0 0.80000000000000004 0.20000000000000001 -0.80000000000000004 -0 0.40000000000000002 -0 -0.59999999999999998 0.20000000000000001 -0 0.80000000000000004 0 0.59999999999999998 0.80000000000000004 0.80000000000000004 0.59999999999999998 0.40000000000000002 0 0.59999999999999998 0.20000000000000001 0.20000000000000001 0.59999999999999998 0.59999999999999998 
-0.80000000000000004 0 -0.80000000000000004 -0.20000000000000001 0.40000000000000002 0 -0.59999999999999998 -0.40000000000000002 -0.59999999999999998 0.20000000000000001 0.80000000000000004 -0.20000000000000001 0.20000000000000001 0.59999999999999998 -0.40000000000000002 -0 0.80000000000000004 0.59999999999999998 0.40000000000000002 -0.80000000000000004 0.59999999999999998 -0.40000000000000002 -0.80000000000000004 0 -0 0.59999999999999998 -0.80000000000000004 -0 0.59999999999999998 0.40000000000000002 0.40000000000000002 0.40000000000000002 
0 -0.20000000000000001 -0 -0.59999999999999998 0.80000000000000004 -0.40000000000000002 0 0.20000000000000001 -0.59999999999999998 0.40000000000000002 0.40000000000000002 0.20000000000000001 0.59999999999999998 0.59999999999999998 0.59999999999999998 0.59999999999999998 -0.59999999999999998 0.80000000000000004 -0.59999999999999998 0.80000000000000004 0.40000000000000002 -0.59999999999999998 0.20000000000000001 0.40000000000000002 -0.40000000000000002 -0 -0.80000000000000004 -0.80000000000000004 0.20000000000000001 0.59999999999999998 0.59999999999999998 -0.59999999999999998 
0.80000000000000004 0.80000000000000004 0.20000000000000001 0 0.59999999999999998 0 0 0.40000000000000002 -0.80000000000000004 -0.80000000000000004 0 -0.40000000000000002 0.20000000000000001 -0 0.80000000000000004 0.40000000000000002 0.59999999999999998 -0 0.59999999999999998 -0.40000000000000002 0.80000000000000004 -0.59999999999999998 0.40000000000000002 0.59999999999999998 -0.80000000000000004 -0.20000000000000001 -0.80000000000000004 0 0.20000000000000001 -0.80000000000000004 -0 -0.40000000000000002 
0.80000000000000004 0 0.40000000000000002 0.59999999999999998 -0.40000000000000002 -0.80000000000000004 -0.80000000000000004 -0.59999999999999998 0.59999999999999998 0 0 0.80000000000000004 0.40000000000000002 0 0.20000000000000001 0.59999999999999998 0 -0.80000000000000004 0 0.20000000000000001 0.40000000000000002 0.20000000000000001 0 -0.80000000000000004 0.40000000000000002 0 0.80000000000000004 0.59999999999999998 -0 0.80000000000000004 0 -0.40000000000000002 
-0 0 -0.40000000000000002 -0.20000000000000001 0 0.80000000000000004 -0.40000000000000002 0.80000000000000004 0.59999999999999998 0.59999999999999998 -0.40000000000000002 -0.20000000000000001 0.40000000000000002 0.80000000000000004 0 0.40000000000000002 -0.59999999999999998 0.20000000000000001 0.40000000000000002 -0.59999999999999998 0.80000000000000004 -0 0 -0.40000000000000002 0.80000000000000004 0.20000000000000001 -0.20000000000000001 0 0 -0 -0.20000000000000001 -0.20000000000000001 
-0.59999999999999998 0.20000000000000001 0.20000000000000001 -0.80000000000000004 -0 -0.20000000000000001 0.80000000000000004 0.80000000000000004 -0.20000000000000001 -0.20000000000000001 -0.40000000000000002 -0 -0 -0.20000000000000001 -0.59999999999999998 -0.40000000000000002 0.20000000000000001 -0.59999999999999998 -0.20000000000000001 0.40000000000000002 0.20000000000000001 -0 0 0 -0.40000000000000002 0 0 -0 -0.20000000000000001 -0.80000000000000004 0 0 
0.19996797062359142 -4.3064302933005012e-07 1.0953783836993213e-11 -0.20000000190314143 0.80001228598049923 -0.80000395656379808 -0.59999999679083749 0.39999999944484593 -2.4442694313851762e-06 0.59999998323066095 0.40000035803797879 0.79999999992512161 0.19999999999991999 3.2787378984394109e-05 -0.79997641724438884 0.80000245473295784 -0.59999996161140667 -0.79999999581307857 0.80000033170176543 0.19999999967895765 0.20000081504064046 0.79999999876432937 -0.80000000060167409 0.19999999992313852 -0.19999993650875875 0.60000021913325163 -0.80004796205363982 -1.4731901198088334e-06 1.3808843195181332e-08 -0.20002522015557647 0.00020913234887059767 -0.59999995722381783 
-0.80009408881534871 0.59999873497348755 0.80000000003188076 0.79999999440755154 0.40003608892071685 -0.40001079275156104 0.40000000961378834 0.39999999833784317 -7.3615549183211001e-06 -4.9256137831706166e-08 -0.79999886080343197 -0.40000000235525113 0.59999999999976494 0.40010493570755262 0.60006926707575914 -0.5999926626380826 -0.7999998830620958 -0.59999995041211285 9.8499684486764219e-07 -0.80000000094196333 -0.79999760586542779 -3.6289780404626884e-09 -0.60000000176709001 0.59999999977313268 0.80000018584250232 0.40000064370414828 0.59985779579299248 0.39999566711194651 0.60000004056955714 -0.60008110201541798 0.20061505319145198 0.20000012621855662 
0.79999929701732286 0.79999813890353066 -6.5402423703378094e-10 0.79980598932907121 -0.800001910039145 0.60321137456502338 -0.79999932168199461 -1.1570696481586966e-06 -0.80179688582799591 -0.79999923141248352 0.20044695975889221 5.2248223067699561e-06 0.59999999999913534 0.60165888981787508 0.1999363460964024 0.0012269912921912874 -0.79943635867582863 -0.19999033222755622 -0.20021723434884786 3.115539262093419e-09 0.79999869243901089 4.3913688882164537e-08 0.40000003785331895 -0.59999998604003013 -3.0138272210055525e-06 8.5684357780770552e-08 -0.20642075985322988 0.59982677250042149 9.1735099242089119e-08 -0.011527061135964117 0.23524699437650501 0.60000119052294276 
0.20017677225651334 0.7999946986535641 0.19999999224454554 0.59939717089685574 -0.39974060673989625 0.0084853918784499743 0.20000103995617002 0.79996508780669562 0.39590035765766107 0.79913669598814319 0.20131779601129884 0.80000752855460699 0.40000000454694717 0.20483412980789203 -0.4000171032745618 0.0022940861438746647 -0.79912796509139628 0.5999088950233028 -0.60059249614005972 0.399999997627909 0.79999881058935651 0.20000013079503723 1.526201871589885e-07 -0.60000084063554704 0.19990350971904605 1.1654494762219788e-05 -0.81280199981803625 0.39393433583062326 0.60000167463192633 -0.80986178696279776 0.26833674655397333 0.80000187473215767 
0.60096537648530768 -0.60024548735301775 0.60000004736665169 0.59939650072561135 -0.0012026032395873558 -0.37079324299162547 0.60000631071835631 -0.60030672134031482 -0.41170840354699939 -0.60360118502140225 0.44805248764641448 4.131517240145184e-06 0.40000022627952725 0.60838694166680318 0.20475161065800504 0.22465500251958073 -0.19966904345962683 0.60008897301349218 -0.14206827140281725 0.19957217419173917 -6.1972948932297929e-05 -0.39999926422454901 2.382047456501662e-06 -1.9195231854917228e-05 -0.20442208509046383 -0.39967952591513423 0.58541366883766466 0.17291512723555411 -0.59999488049830962 0.59983567546920802 1.0767232676554142 0.4000003051423564 
-0.39874054002496845 0.79989873709177872 0.79999947258371584 -0.80616456771549938 -0.60706472807813949 -0.19254207501227066 4.1888096465007365e-05 0.19989439102047357 0.7909479901753157 0.39575233960405221 0.81622093377685545 -0.59999532862499083 0.80000016437853294 0.023551949984069686 0.01640379616884451 0.62310773417526621 0.20009789897450669 0.0038119491891059959 0.41705854371461581 -9.7302575941911389e-05 -0.79988841186043635 -6.2588609830906237e-05 -0.19999713689326204 0.39998447632820316 0.78547733454947011 0.60235143229900823 -0.80690344564087768 0.75786119212787517 -0.19992209188265075 -0.18497450003609631 0.12466461384069109 -0.59970253367823712 
-0.60128536886954276 0.79987232658227103 -2.6264572212697841e-06 0.3883144566981922 -0.8162361350744255 -0.39045094488185728 0.40039764283717977 0.79991762098480867 -0.82401976716184155 -0.40489404660647621 0.41656232685275141 1.4329836233747815e-06 0.80000015457063101 0.83654065496242702 0.22595208646771195 -0.57477501993448421 0.80021556452305043 -0.40326429243773743 0.21419021103472297 0.60001553097173554 0.20058955552661412 0.59986487606857686 0.19999678146971236 -0.80009835355220682 -0.011682976230394874 0.621644950127197 0.38762317700375676 -0.072202074270816735 0.40065766849858175 0.59822026558799768 0.16952631879039326 0.20193247817294105 
-0.0051492162153943368 0.59953304072531666 0.39999762160600089 0.80810072843591763 0.0025002361971759078 0.087652624520342934 0.20011857604807479 -0.00017008985464254947 -0.034208145442416606 0.81772279983789031 -0.75827657957943839 0.59999286365356708 8.5561849021566296e-08 0.24649740897053626 -0.7668317964677509 -0.59140936317076453 0.60203464618089286 -0.0029550529331195232 -0.77830679493095034 0.59991668228028461 0.00061826831373049714 -0.8002293952728291 -0.60000682957289209 0.62905083314820232 0.45216186457630508 0.40107485107024293 -0.023228301411418718 0.34334281721077942 0.0010432686609776678 0.15616841396151812 1.0097936145469417 -0.79418266609080834 
-0.20503635208741861 0.79747582377832871 3.4978676541793612e-05 -0.59250997405754269 -0.48955619946783702 -0.63098432021266471 -0.2003388331062039 0.59990998226273129 0.56971693995669404 0.84190629250916604 -0.71136090259200824 -0.80033260015176999 1.5020944967512148e-10 0.51380760194574393 0.042139910840301366 0.079774011128814548 -0.57476062834719532 0.74482429138945339 0.65253961857712839 -0.007469839626569625 0.80675217408078981 0.59954023014002833 0.79999855351843807 -0.34818243200294013 -0.53977462139149701 -0.59980427247916779 0.54117317628399875 -0.045121839353062153 0.00091884979574440831 0.75444156755336755 1.1272673979891856 0.60295353711795197 
-0.60761321538789448 -0.20283296325908523 -0.7999822478455082 -0.80909370746879206 -0.49326000312343082 -0.10203323543625523 -0.20001861075745919 0.19996222347820156 -0.022302191602731662 -0.8123445599570368 -0.14983933536553518 -0.20031280121780573 -0.20000042533359486 0.70926190865730787 -0.77813434012741534 0.067577830404984537 0.8170876980678452 -0.40331921165524126 -0.28967958168068442 -0.60626277644866888 0.20333776776473483 -0.80061805780443873 0.20000217702453754 0.4207673494532887 -0.70438975126252124 0.00013026276225389671 -0.64720024592042791 -0.61220023211834784 -0.59969870715550833 -0.82055407784511547 -0.058471112162857414 -0.59698716692850873 
-0.84395888659232976 0.59928295351421201 -0.20025145570493735 -0.010408873938886587 0.7245116725752172 0.80438663240093988 -0.79987436307393345 0.79994260909685144 0.0011291757718407908 0.32703417578194699 0.13118953175160744 0.19990255005027374 0.59999279213767076 -0.48214617550193323 0.57540477531621137 0.56239739485366735 0.0047915663281029317 -0.23062673673293463 -0.77061608250554203 -0.19464289855614056 -0.60459972241303306 0.19800720882142847 0.60004363958633844 0.39633032386625378 -0.42633848223472171 0.024595604816976879 -0.4762569201308644 -0.27952573416358473 -0.79971829773239012 -0.18225177492699798 -0.60955384733237816 -0.46623358697123918 
-0.27606278623933317 0.39939593091934766 0.19958937770789903 -0.021197209049924847 -0.3422658262824621 0.23015741804837958 0.40063115166867913 -0.60018157264395766 -0.014527174737660823 -0.60023226746065517 -0.46576271872833475 -0.800197875776261 0.79998102918282721 0.93739944595832247 0.51463147067548221 0.7045430503056197 0.80767495803531075 0.41838245702491544 -0.81505235718823887 0.80001588294372938 0.19728671430247527 -0.20158461297695479 0.40033276368794557 -0.80440758316513328 -0.26605641181841155 0.038403886214498667 0.33848516235696957 0.27592217486965132 0.40012285622933763 0.40653201607634437 0.31060628043899752 0.15548746478568698 
0.2882162626815708 0.59948016340351573 -1.5917725647322812e-05 -0.77337800671294321 -0.049103086863227077 -0.58982200827173092 0.60005476976043082 0.39923783921900441 0.57024686205477226 0.91849160900118398 -0.76606216978139652 -0.79946915052159584 0.59999415008037293 0.63795330757241542 0.37866419379047067 0.4100795850780336 0.8025502082263023 0.032577782257917597 -0.058303699739582784 0.799988982075443 0.60100881811541118 -8.9449702930592521e-05 -0.19908908665367367 0.80568241605562663 0.51884383747492591 -0.73232921020352826 0.13041663493760863 0.39679711375029003 -0.7998260922752114 0.80186314587213048 -0.45706443245066114 -0.1770079786419663 
0.37328619365055599 -0.20077431550382363 0.20001147037240569 -0.74867536136724866 -0.04768649458192506 0.40660977713898511 3.9132917987883568e-05 -0.00019705531960287318 -0.61324227315949897 -0.73583832539187999 0.40674183294300131 -0.59978847207062402 -0.40000254013351616 0.10400592145974896 -0.21394100698777463 0.80856115749871205 0.19997933121262176 -0.7666468269097575 -0.042473985378317688 0.60016732467852851 -0.3955423690865591 -0.60001522361970461 -0.39984862746916461 0.6031526514883514 -0.029646701652113874 0.60820835427192022 -0.097604916909717704 0.18867271549001643 0.20007187069096979 0.18856411464763662 -0.35608864256695266 0.4000007485039066 
0.024631554580418297 -0.00013660916665087807 0.79999994959435128 -0.40271113973105893 0.90286942602540199 -0.58969727219388535 -0.79990949727364058 0.5998937759967834 -0.20215896246896675 -0.82388861399835489 0.61322025409404901 0.20000844230493914 0.59999915204453591 0.8465247611672706 -0.64473407580650777 0.0016187168983289885 -0.40032159346455387 0.60465420249075041 0.59724553805851333 0.39986306240118941 7.0404697450269276e-06 0.19997597164889738 -0.20000000283433075 -0.60081238435300033 -0.19997097440868486 0.40143059206271542 0.76767486447623068 -0.062055680550393295 0.40000848686607049 0.17070722286251619 0.29118137991888937 0.60000272525225551 
0.40288771634091558 0.59724600295390917 0.39999985346024497 0.53905617807622996 0.94059752274261454 -0.11332453788132772 5.1617231437925049e-05 -0.60146661850678851 0.57194548560054637 0.33095534280948874 0.64909912631846611 0.39985613618610744 0.19999286799845109 -0.31314748487181199 -0.84245382535830793 0.0059750364295764477 0.41006670857186189 0.63936233992584091 0.035912811397813799 -0.0023765603959067022 0.00043780170425785443 0.19993042645571935 -0.59999986940719452 0.59304924492725974 -0.15087765214091978 -0.59884677789635421 0.27206499694254177 0.14277823577633433 9.0720999812528286e-05 0.59808560005028133 -0.14360283905322799 0.40067015519319854 
0.18119942680228204 -0.0017832347799747596 -1.6099163894856491e-07 0.010046599540807361 0.30920650147966666 -0.51120215306740768 -0.79995282972563442 0.39899139534411604 0.18150474401249192 0.69329269744101518 0.60301998250448963 0.39990717609963455 -4.2738338370904795e-06 0.90374271728947653 0.54874478970482654 -0.18856263297105949 0.80660731014108678 -0.80023692305227012 0.23216911553487712 0.19827908663700902 -0.39634614928261624 0.59996476990490255 -0.60000128606931014 -0.0035305540646453459 0.031631968036292722 -0.19973910119549165 -0.32681407364562198 -0.8660346392951116 0.60005702772194969 -0.80629270999907432 0.7227826097193345 -0.39915288735740523 
-0.015150682014206617 -0.40010169809394136 -1.0592182929497051e-08 -0.42027920137674835 0.12534629116668802 0.40926009461930107 -0.39995336739956011 -0.20001306474647396 -0.60070508795149002 -0.28439765488169544 -0.68506574330934933 -0.40001221697490913 -0.60000009151659084 0.046146828034092181 0.58125098894251581 0.005565745359439999 -0.7995564833317238 -0.28453006563015731 0.033769881514129081 0.19980937181738695 -0.58818559204316523 0.39999863897603377 0.39999939516762645 0.39999869772001567 0.80001740806726462 -0.58707221894899819 0.056572741129170226 -0.45206074416471231 0.20004058369318831 0.79188851285046524 0.18486024102390128 -0.59957669800718372 
0.5698038102434021 0.39988139852696358 -9.3001495837489089e-09 0.79781684726697422 0.83633934229515783 -0.80172841988094035 0.60000256261326235 0.19999712874941269 -0.00023140995414461737 -0.4061057948020978 0.091168547475712305 0.79998564632024205 -1.3410593464292151e-07 0.0020620353055625495 0.39725114397095307 0.6010643633310716 0.00050956989040244554 -0.83304226904665402 -0.19704041570498587 -0.2000519442487155 0.80098038754443868 0.39999834501058518 0.39999999460415264 0.19999994954027903 0.4000012449988824 -0.38476966062960283 -0.36695814082051559 -0.63973444007378699 -0.39994926543967624 -0.0099798384115422425 0.43303244643724009 0.60022413787383233 
-0.40254038583104845 -0.20001526655598667 5.4069403971023739e-11 -0.80000277474969905 0.60227140934033063 -0.00014439663025306724 -0.20000000195690321 0.79999986069052853 0.59997489074487631 -8.1786488638353555e-08 0.40717783179383649 0.79999883432340635 -0.40000000922259554 -0.39993318598673622 0.19987242909522532 8.3207894249900561e-05 0.80004163391872818 -0.20227671393235538 -0.59999978808722798 -0.40000228787318892 -0.59999997243493119 0.59999986038411968 -2.4062476651302793e-10 0.5999999988605963 0.40000000749917541 0.20123702345650729 0.78644157634346834 0.59693047306256697 0.60000435838034416 -0.80087112534457428 0.20141922678491109 0.40000033692242742 
0.80000000000000004 0.40000000000000002 0.59999999999999998 -0.20000000000000001 -0.80000000000000004 0 0.20000000000000001 -0.40000000000000002 -0.80000000000000004 0.20000000000000001 0.20000000000000001 0.59999999999999998 0 0.20000000000000001 -0 0 -0.80000000000000004 -0.20000000000000001 0.80000000000000004 -0 -0.40000000000000002 -0.20000000000000001 -0.20000000000000001 0.80000000000000004 0.80000000000000004 -0.80000000000000004 -0.40000000000000002 -0.20000000000000001 -0.20000000000000001 -0.20000000000000001 -0.20000000000000001 -0 
-0.59999999999999998 -0.20000000000000001 0.20000000000000001 0.59999999999999998 -0.80000000000000004 0.20000000000000001 0.40000000000000002 -0 0.59999999999999998 0.40000000000000002 -0.80000000000000004 0.40000000000000002 -0.59999999999999998 -0.20000000000000001 0.20000000000000001 0.59999999999999998 -0 -0.20000000000000001 -0.40000000000000002 0.80000000000000004 0.59999999999999998 0 0.40000000000000002 0.59999999999999998 0.40000000000000002 0 0.59999999999999998 0.40000000000000002 -0.59999999999999998 0.40000000000000002 0.40000000000000002 0.20000000000000001 
-0.20000000000000001 -0.40000000000000002 -0.59999999999999998 -0 -0.59999999999999998 -0 -0.80000000000000004 0.59999999999999998 -0.40000000000000002 -0.59999999999999998 0.59999999999999998 -0.80000000000000004 -0.59999999999999998 -0.80000000000000004 0.20000000000000001 0.80000000000000004 0.80000000000000004 0 0 0.59999999999999998 0.40000000000000002 -0.80000000000000004 -0 0.59999999999999998 0.40000000000000002 -0.20000000000000001 0.59999999999999998 0 0.20000000000000001 0.20000000000000001 0.80000000000000004 0.20000000000000001 
-0.20000000000000001 -0.20000000000000001 0.80000000000000004 -0 0 -0 0.40000000000000002 0.59999999999999998 -0.59999999999999998 -0.20000000000000001 -0.20000000000000001 0.20000000000000001 0.20000000000000001 0.20000000000000001 0.40000000000000002 0.20000000000000001 0.40000000000000002 0.80000000000000004 -0.80000000000000004 -0.80000000000000004 0.40000000000000002 0.20000000000000001 -0.80000000000000004 -0.20000000000000001 -0.59999999999999998 0 -0.20000000000000001 -0.80000000000000004 0.20000000000000001 0.59999999999999998 -0.20000000000000001 0.20000000000000001 
0.80000000000000004 -0 0.40000000000000002 -0.80000000000000004 0.20000000000000001 -0 -0.40000000000000002 0 0.80000000000000004 0.80000000000000004 0 0 0.80000000000000004 0.80000000000000004 0.20000000000000001 -0.40000000000000002 -0.40000000000000002 0 0.80000000000000004 -0 0.40000000000000002 0.40000000000000002 -0.80000000000000004 0.80000000000000004 0 0.40000000000000002 -0.80000000000000004 -0.80000000000000004 0.80000000000000004 -0 0.40000000000000002 -0 
0.40000000000000002 0.59999999999999998 0.59999999999999998 -0.40000000000000002 0.40000000000000002 0.80000000000000004 0.20000000000000001 0.20000000000000001 -0.59999999999999998 0.20000000000000001 0 -0.59999999999999998 -0.40000000000000002 -0 0.59999999999999998 0.40000000000000002 0.59999999999999998 -0.80000000000000004 0.40000000000000002 0.59999999999999998 0.40000000000000002 -0.59999999999999998 -0.40000000000000002 0.59999999999999998 -0.59999999999999998 -0 -0.20000000000000001 0 0.40000000000000002 0.20000000000000001 -0 -0 
-0.60037471002456266 0.79999997798021782 -0.80000000034229424 -6.5050700388513905e-05 0.20000214920435325 -0.20015946169720214 0.39999999998789532 0.59999996597350047 -0.20030607419759153 -0.20000064190303851 -0.39999997354971922 -6.7418008471446212e-10 -0.60000000000040909 -0.1999998025818962 -1.3484587200736951e-05 0.60000212178726253 -0.39999999891526361 -5.2202776729349465e-05 0.20000000109025429 -1.3739036657908257e-11 0.6000168451761938 0.399908257354532 0.3999999997291489 0.59999999918117786 -0.399999999984191 -0.60000000077859861 -0.20132655278825037 -1.1988908573249757e-05 0.60000000169505874 0.39994866662014178 -0.59867803063525615 6.8479276312561493e-08 
0.40007538714353474 -0.80000012540876453 1.3530860553404891e-07 0.00050299861543916409 0.79972439937735784 -0.80001620433952425 0.2000000132757318 0.19999847951260247 9.8429489132969509e-05 -0.19527898762799389 0.59967550430637462 -0.20000099141129288 0.3999999987284375 -0.59955624550732911 0.59657093011626139 5.0792422290704654e-05 0.60280105158736819 -0.40009982831948254 0.6000185779462629 -0.80000058936182949 0.40000629100191781 0.59999999570546481 -0.40000000014102499 -0.59945273399815591 0.19661519718838888 0.19999994074271021 -0.0035499188219841292 0.40445785272798235 -0.79999939110058238 0.39999345479262249 0.80824990517376394 0.20000004467658919 
0.20003938348424299 0.19999974016426703 0.79999997205942075 -0.40062392892603005 -0.19645445283041976 -0.00049458206543320326 0.20000001284438187 7.9980299223288765e-09 0.0001337624741900324 0.20168315810073398 0.40351158574372736 0.59999998160102885 0.79999999967405222 -0.1952846822316866 0.39740342974872939 0.19980215846090169 0.2009649530584508 0.79994568929504428 0.20015945038457025 3.240377244883233e-06 0.20000711118875053 9.3320617546651591e-08 0.60000000227032302 0.0001825127167159879 -0.0011938561154458359 -0.19999979837540474 -0.20219065242588746 0.0015479485703201864 -0.59999951154501852 0.59998133455939451 0.60294824818456061 2.5453126423216244e-07 
-0.40034902034527137 -7.6801450731718906e-07 0.59999997545460027 0.5998215817393705 -0.8003508448582598 0.80022376962090491 1.2798001390435559e-08 0.60000000145896548 -0.19994639154098554 0.79997903341343246 1.3910471718204409e-05 0.39999996859386139 -0.80000000000339722 0.20001148843614869 0.80003942331478195 -0.60016449951118456 1.2579042958920981e-06 0.40215605748838251 0.00011854194790090092 0.40000557837926387 0.19999564129316566 -0.40000174658854237 0.80000000396438231 -0.79999821977933927 -0.80026353004226658 3.7287626581822974e-07 -0.19978245064153816 0.79999200672693682 -3.1319397769855494e-07 -0.20045294138900435 0.19824085782452067 0.80000041854039128 
-0.0017078519750060779 0.79999887105899758 1.2028973193365808e-07 -4.9245518572954909e-05 -0.40558553857580409 0.00037696155172728591 0.80000149599448267 -0.60004667948223489 0.19764976871737236 -0.80160928959462596 0.19665421702235908 -0.7999987709996077 -0.20000000093031783 0.80120933121686366 -0.79252424905886221 0.0028209139009404598 0.40084168259289987 0.011803304921021138 0.2069954940679431 0.1999997887350777 0.39941212526305597 -9.5615505264784901e-06 0.60000023681872194 0.20237143963224494 0.79573075753565259 0.60000083918941283 0.39606997178607473 -0.40295080525918797 -0.4000034349049757 0.39251961637604099 0.2088998285752578 -0.59947538240627696 
-0.40334432784476404 0.59990689928219676 0.0001272616826330976 -0.6026046729361948 -0.62715463912817582 -0.39532678962174933 0.79978339482517158 0.59995196021092934 -0.46154810706388411 0.76693949621523327 0.21387845962011695 -0.00023787031164743474 0.80000003726576197 -0.17257324158291559 -0.35194415321967049 -0.34982019215448135 0.40779728591353909 0.2112074342753367 -0.34812984501514188 0.39999470236579293 -0.00084899921900435851 -0.60008166097092652 -1.5877108849421608e-07 0.8006148922707006 -0.013953530347524055 0.00014261190444045347 -0.42906429022504655 -0.64868826846328342 0.40008597897229181 0.5740690012264873 0.71413816690905785 0.40212862339418454 
-0.40485991434435903 0.19947815468150304 0.00068361390495214047 0.59448397069250858 -0.048233095620748331 -0.78542698246903075 -0.00015064034032546649 -0.60033744175759962 -0.19365093607428241 -0.11479603079239731 -0.33846371912022066 0.79959726098901263 1.1295354006795574e-07 -0.54674315165659815 0.87854673615415457 -0.13885822332939252 -0.78583519795218371 0.023960722879006312 -0.084268580550209735 -0.40044781662641671 0.60142089026588796 0.19967566555791105 -0.40000197819508293 -0.59914894829461918 0.77883176276437616 0.00050353774625742594 -0.85840371818443906 -0.34103955647538992 0.79991415192760917 0.79913488990263604 0.37872623338937589 -0.19259834135733989 
0.58126051379022114 -0.600961015499476 0.60072439347552309 0.04414840740016291 0.71882903030257128 -0.0091814592687505421 0.1998068114687041 0.79990589309285476 -0.56253853367491868 0.79869592131150924 0.080054757344966795 -0.20003447739588467 -6.7900449256961321e-08 -0.72382667561877612 0.76091017830104668 0.22816228895561194 0.80479937185342187 0.08830739485617306 0.36228960547005534 0.39980147120615084 0.80561281020209774 0.40043886609198753 -3.8674420919436e-05 -0.39934711976925169 0.78305316178156081 -0.0007994483472348533 0.73205908962358579 0.47712451375800724 -0.80116353701533904 -0.18401527129199852 -0.48436171071407685 0.21155445299893103 
0.75434120918811909 0.59579388440821457 0.79943592704614008 -0.66072207169207364 -0.61190445052981879 -0.020649946828417427 0.79954576194686555 -0.80003814905137882 0.45879721226308723 0.27472882259531156 0.75913232770764216 0.40014395533023261 -0.80005665094148037 -0.45257190479781861 0.57412666599366391 0.82551146067745418 0.80289502581618633 -0.51058874323499059 -0.59230636035921569 0.80008172409764933 -0.14389527671788818 0.59765910848895376 0.79993601919360313 0.81372941616185301 -0.7265081452454164 -0.78005713658766396 -0.90064931434938367 0.27347904933338602 -0.19178903313603662 0.61692329591867778 1.0741210614155619 0.38260293390644506 
-0.082405445716349265 -0.60453884898636823 0.40080622272161437 0.2690424916457555 -0.68235418838739759 -0.089913819622166075 0.39863193347704545 0.59984754511667115 -0.25761905128416523 -0.23198361813695217 0.62168017396229269 0.20004109290121502 -0.2000948505771499 1.047860728664415 -0.25275088680757657 0.98325895169926592 0.60298770846244032 0.14118213822385739 0.79913125647337591 -0.0024346980790440347 0.54062409746606144 -0.60689688445474477 0.40000767193231979 -0.75180959619188625 0.16688927776465254 0.82161760998066502 0.44985430053774567 0.14128002355397987 -0.78005861342238902 0.79702257135204435 -0.31215086040483647 -0.034925475709128947 
0.47482068274633626 -0.80983152434026084 0.61579621225791414 0.82852286668034558 0.20543385479674597 0.63041411335457342 -0.59981572102309766 0.59947082153414155 -0.75559724702256326 0.68782855318050784 0.6540864343800854 8.9459525693068935e-05 0.19996626398756803 -0.050359947979561184 1.0201569960060157 -0.024842610407309972 0.039092951443271323 0.49679061941720576 -0.15955278311028354 -0.58230755417717506 0.32714045933624075 0.80054449846299547 -0.79994918294574469 -0.10749652228570236 0.61389997274625496 -0.19658743054875041 -0.81438804711286572 -1.1378884193414809 0.80915548700531126 -0.058668383988506177 1.3278209204501434 0.58849888450686605 
-0.31873299095998747 -0.41109852993486673 0.81526387184136417 -0.41529987292080706 -0.19011812563825112 0.17618294114361824 -0.39737594889288597 -0.00091079864873978714 0.22436457218899838 -0.025480056200719373 -0.2816434163512217 -0.20026274660405352 0.59971381638837018 0.73060303325465703 -0.40352483795323846 0.74045686608814909 -0.6305528159409588 -0.64633883101383172 -0.7547814874375941 -0.62135150656266358 -0.54103898934403993 -0.5922373236825631 -0.19975498865373689 0.70295309550466867 -0.00073767638126921047 0.65673082620418166 -0.73326833223685062 -0.62463831160896288 0.0036627196655359124 -0.43202893812707549 0.39323973594633543 -0.13082085830681683 
0.39766242687046383 -0.027468812824572999 -0.88730857557801834 -0.47627332617156265 0.28654112775158486 0.12959858324463325 0.80339494770007713 0.59864086613617851 -0.81017780674002771 -0.10139383506407922 0.14742139072067212 0.60040175172015997 -0.40038963026652868 0.52674190700818324 -0.23893284629496461 -0.40247732601396602 0.87593588883848839 -0.00016686123743325551 -0.27227332653840952 0.53949647526591449 0.42117932675990538 0.21294637754485657 0.80135926722927275 -0.54889933921650857 0.48237131525532417 0.80409337992068697 -0.62382440891826718 -1.0283296558505541 0.79912977707838517 -0.01402151741472034 -0.19497560092438754 0.093274955450313002 
0.10426442319883682 -0.40965692225968181 -0.97392577695111016 -0.42791212544714363 -0.57899817566209888 0.89791048040791599 0.40239821810655274 -0.0037990124409453081 0.41308385119159108 0.056013922118021885 0.22442720787331519 0.40502031211323836 0.79999408348924583 0.30685125384113288 0.091283181468158128 0.25062565418159938 0.053276851563238171 0.77395249081299011 -0.35552516123326289 0.38518185598918403 0.44205393167370272 0.39566199416148989 -0.79540812565176711 0.84827260881266386 0.075091693376229146 0.061611222242443434 0.74676028934621408 -0.65689936543080929 -0.19389730975691341 -0.23403295967429186 1.1256323130327521 1.0515461781547046 
-0.39116374672516724 -0.20657076379789616 -0.084776026089542433 -0.076522128103669845 0.40572363368333886 0.02909528306524032 0.20189927871080793 -0.60933003822158194 -0.031116110842002699 -1.1072827396238814 -0.40967136658042991 -0.1912548357745896 0.80006702234785754 0.8416812637430473 0.041164144876344497 -0.003562307276689622 -0.58128052815173636 0.081801136057376558 -0.10155413532334846 0.39421387158631976 -0.68310263627957279 -0.20656791530292398 0.20251861423486772 -0.55723995097221191 -0.68014321795501664 -0.51214115047484665 -0.82467078251501036 0.29322595785604366 -0.78282344559073169 0.017784410349586714 -0.28717134887555956 -0.2332620807363468 
0.73702905093697524 -0.21145468970737347 0.54744891571149312 0.16553979334464897 -0.34286687228878876 -0.036991804042281556 0.00081380596429889477 0.79427412345522164 -0.70844025262790422 0.16944709999293467 0.75751632649960376 -0.79861812212850503 0.00015703073183115821 -0.38197251892064521 0.017994581633867347 -0.26055232410365003 0.4092126502642951 0.080031986690237034 -0.59848486171431736 -0.40476662128283186 -1.0671805510323231 0.79316435306849442 0.19995317640916041 -0.76175048150444702 0.34392684821136577 0.10421122203662467 -0.53422669457857574 -0.4194271757864324 -0.019279476803027662 0.02299820412061674 0.58052106603660658 -0.15218830123271651 
-0.57943444323094373 0.39989372606532453 0.68388077739783082 -0.29595109415145948 0.4004822105758456 0.082115578097687145 -0.19968764619827151 0.20462343292567028 -0.8462541512616184 -0.28507481106993993 -0.43764394250749694 -0.19615569843725181 -0.00013322272115706669 -0.19504689628795688 -1.8347755946936951e-05 0.54290365623869696 0.54946959458066058 -0.6525086555517744 -0.4706952850706923 0.81019459558724205 0.20720978934399942 0.39566667224254015 -0.19989271346942822 0.42357123466337021 0.21405286791746633 0.056477180403964447 -0.1697813559671415 -0.4188410310154001 -0.67716604613903353 0.014058849536409321 0.77540916334542109 -0.015289494844265648 
0.73373427325007379 -0.19879854794795501 0.2749992049387841 -0.33617753495880948 0.41228818423729185 0.68861287780023761 5.3341648911659463e-05 0.60172548908641255 0.24192755604301819 -1.0131087709419682 -0.23554014776079754 0.0020439276006368428 0.19995983777228904 -0.24438894385175663 -0.21523566785404497 0.21554001068420833 0.59497409231584453 -0.95658541230534089 0.80571264787495167 0.60733630474468714 -0.78189343465928085 0.60880317964730934 -0.1999748242742482 0.80328655343465405 1.0464047050035412 -0.79327563192333916 0.67130998790713337 0.55933806696208666 0.18003009720095947 0.0034888143936478073 0.33408949811852168 0.17390657827448638 
0.24054265014378637 0.39977618523480185 0.32705879575930241 -0.70581390427405089 -0.30344257421067627 0.040096318624348634 0.80002583073913047 0.199838326745858 0.72873339007119697 -0.02402797919552906 0.54373188931827388 0.20040765347047473 4.4177804005500198e-05 0.53694939664729069 0.21150551130252007 -0.32521789328019945 -0.005523827125241714 -0.038485254740957112 0.25902538100895511 -0.40149483326821461 0.10003856245129709 -0.19838808111522263 0.80000659735642232 0.41529742667496156 0.16882719095809187 0.19462382561427174 -0.52975164887206461 0.42837145838537027 0.19622875455133665 0.39600851295205686 0.53072292110617791 -0.80847729163023563 
-0.19766902050364094 0.19990987985274092 0.36392189479848241 0.59011589152927535 0.32506371695095421 -0.36755170485918609 -0.39996296812134119 -0.00015707144540424669 -0.89441631810868394 -0.03957861973348064 0.32413806858285948 -8.8605994845008371e-05 0.19999738898013389 0.10643457108379446 0.24117365647088979 0.17994630664140446 -0.40366624732447776 -0.25801441975973921 0.88330026255045735 0.39475743715407663 -0.68974323627116252 0.20014879276895381 -0.40000361608768065 0.016876382670776527 0.32839808673396098 0.38793569048204396 0.44416304358998709 0.20412045474790358 -0.80049838828273367 -0.0047525735104997774 0.043235717514299776 -0.39276265766980906 
0.36742712900092889 0.59984700446344696 -0.22401196952867095 -0.14035470855129006 -0.3625055905330013 0.21363083406220629 0.20001782255395886 0.79992990431711319 -0.42986889888789304 -0.089859968359393569 0.44413600625249183 0.79997460181992153 0.39999601230089377 0.43671008998409966 -0.48402361632640861 -0.48166148214472954 -0.0012747993085016987 -0.76470709898452383 -0.10493526475840026 -0.40208503181391525 -0.16378747187294712 8.3090753232006247e-05 0.4000014380832983 0.60848996555382906 0.67848546065318693 -0.78741184312256629 -0.25808600881072774 0.27706364294253355 -0.20002507754605084 0.78856788261173993 0.69727645045301079 0.0057059832862058875 
0.17832904283911558 -0.60007317728206955 0.58785730813667547 0.5376138521000362 0.25810910047458335 -0.0020553969561355029 0.59999928872062502 0.39994716238830802 -0.81306414777930835 -0.70149756809594621 0.078350630592133319 -0.39998525791181166 0.19999710520983346 0.40947382991269621 0.17735360189761512 -0.71406901458776728 -0.0010407808888002982 0.55960556239110482 0.021694161431392373 -0.40073013871813956 -0.60438474591654245 0.80003144630224732 0.59999947670016962 0.81053659153572699 -0.17769721346216691 0.80660540176894724 -0.89751467025198484 0.76338727305179344 -0.40045229412169731 0.39538183742286565 0.9143884050113027 -0.40109133306276407 
-0.0038702142294973025 -0.40002805182968859 5.7210014169416201e-07 -0.19114919968413874 0.40925288593505016 0.19735713659589835 -7.4248000807657982e-07 -2.2941815982319599e-06 -0.40028517865920488 0.14500528494597667 0.21493595903932031 -0.20000209869566388 0.19999942550443317 -0.39856217402103933 0.39307209596638065 0.24073493127729384 0.40000595378661546 -0.38402597974844793 0.39290588100257612 -0.40052861418294217 7.1169078501845875e-05 0.39999204064551519 -0.60000000013798105 -0.59221381263844519 0.0029104954756201018 0.3996348694565991 0.19252847381519994 0.3940729864001305 -0.19999995298449699 0.39741323414364332 0.21866383476665333 4.2596330332774362e-05 
0.79902495232864512 -0.60001047338461699 0.80000005715970357 0.61984219152734066 -0.19969230243018227 -0.60095846534212705 -0.20000005889505154 -7.1309687292970377e-08 -0.80002173084845585 -0.19846990891585706 -0.59970369823304293 0.39999998500886541 -0.40000000048352113 -0.19976649229287527 0.39733579403241254 0.80045876212152167 -0.39999996909933283 0.41919117628879909 0.79202857708292185 0.79989380370550056 0.19999941312128075 -0.60000510522860884 0.40000000947803938 -0.39931070565135018 -0.20012998492340478 0.79981518410475305 0.79942979774834955 -0.40236096079487332 -4.7818965903324929e-08 0.39833013209131762 -0.39805131578264752 -0.59999934849038716 
0 0 -0.80000000000000004 0.80000000000000004 0.20000000000000001 -0.80000000000000004 -0.59999999999999998 0 0.40000000000000002 -0.40000000000000002 0.80000000000000004 0 0 0 -0.59999999999999998 0.59999999999999998 -0.20000000000000001 -0.59999999999999998 -0 -0.59999999999999998 -0.40000000000000002 0.80000000000000004 0.20000000000000001 0.80000000000000004 -0.80000000000000004 -0.59999999999999998 0.59999999999999998 0.20000000000000001 -0.20000000000000001 0.40000000000000002 -0.20000000000000001 -0.80000000000000004 
-0.20000000000000001 -0.40000000000000002 0.80000000000000004 0.80000000000000004 -0.20000000000000001 -0.80000000000000004 -0.40000000000000002 -0.40000000000000002 -0.59999999999999998 -0.59999999999999998 0.40000000000000002 0.80000000000000004 0.40000000000000002 0.20000000000000001 0.59999999999999998 0 -0 -0.59999999999999998 0.20000000000000001 0.59999999999999998 -0.80000000000000004 -0.80000000000000004 -0 -0.40000000000000002 0.80000000000000004 0.80000000000000004 -0.80000000000000004 0 -0.59999999999999998 -0.80000000000000004 -0.40000000000000002 0.80000000000000004 
-0 -0.80000000000000004 -0.80000000000000004 0.40000000000000002 -0 0.80000000000000004 -0 0.80000000000000004 0.40000000000000002 0.40000000000000002 -0 0.40000000000000002 0.59999999999999998 0.59999999999999998 0.40000000000000002 0 0.59999999999999998 -0.40000000000000002 -0 0.59999999999999998 -0.59999999999999998 0.20000000000000001 0.20000000000000001 0.59999999999999998 0 -0.59999999999999998 0 -0.40000000000000002 0.59999999999999998 0.80000000000000004 -0.80000000000000004 0.80000000000000004 
-0.40000000000000002 -0 0 0.80000000000000004 0 -0 0.59999999999999998 0.20000000000000001 0.20000000000000001 -0.20000000000000001 0.80000000000000004 -0.59999999999999998 -0.59999999999999998 -0.59999999999999998 0 0.80000000000000004 0.59999999999999998 -0.20000000000000001 0.40000000000000002 -0.59999999999999998 0.20000000000000001 -0.80000000000000004 0.20000000000000001 0.20000000000000001 0 -0.40000000000000002 0.20000000000000001 -0.40000000000000002 -0.40000000000000002 -0.20000000000000001 0.59999999999999998 -0 
0.39920559219638513 0.39999998020789557 0.79999841257761117 0.79987435824296427 -0.59998212614749757 -0.00035122486635063942 0.80000000147636718 -0.60000018306917791 0.39931774479885612 0.0047520281668181246 0.8005394760714053 -0.3999999988611127 -1.2486293334207504e-07 0.80000044069921605 -0.60082717090616933 0.59980682903676252 0.40000004181160659 0.39988439979467272 0.59911818471049127 -0.59999943115976984 -0.39996288805110281 -0.4003312363946695 0.60000000255175168 0.40001537634935119 0.79997149207046414 -0.0066170593750300962 -0.002693036492629761 0.39996622001262194 0.20002353286621563 0.39990854787181007 0.8029230198931 -0.39996986096871318 
-0.60067296179497964 0.79999915718421899 0.80000084336618071 0.20103700462498422 0.79914094622799436 -0.39955120463882332 1.0377679689157344e-07 0.199988622479048 -0.012765183628338461 0.21362613695164451 -0.60045616633989962 -0.80000767665689754 0.19999996501109762 0.20524692411186052 0.58844076160268155 -0.19806227460679623 0.60814150691117197 0.7998048616280854 -0.00036114119566972911 0.59999929903371352 5.1559285098285765e-05 0.59995921944993535 -0.5999998765462764 0.60158660696718314 -0.0084451919925422076 0.39842434258408926 -0.012063656998504993 0.01282118405535947 0.80001222773447556 -0.20018860907683941 0.62348608086025525 0.19998010479318618 
-0.00018182223116031514 0.39999883009663362 8.0659293953904662e-07 -0.40765514811724379 0.79865915717783142 0.40009648070829279 -0.80000109411578757 0.79997999946378828 -0.82985258546065732 0.39712406129804972 0.19983984331999191 0.19998673619479271 5.4055652370532635e-07 0.79525309972865632 0.7973933269077067 -0.60001360688595295 -0.5929614552381578 0.20285593758682194 -0.79792716310815193 0.40000184556336088 -0.19993063713141834 0.79982435686786102 0.40000179275630687 0.20027066232847884 0.61623887458905491 7.2821794536406241e-08 -0.60200878424218607 0.80421047258435308 0.60004292602512999 0.59975650139610004 0.16383022211192785 -0.6004192300691068 
-0.1976792694988796 -0.80000348976983671 -0.0035658165890084552 -0.40859148119181293 0.59804361986478372 -0.021104007099685709 -0.60002916436852971 -0.00013111756767723767 -0.53809100370149721 0.46248182763565443 -0.79570129692982783 -0.80015828360364738 0.79999833713298318 0.82104598627203995 0.37911630120280454 -0.18581636099559756 0.20312639860310128 -0.16819517456569838 0.42149378073833799 0.60008171887841544 0.80595157036993037 0.79985336377483884 0.60000329001599118 0.011487110610443909 0.012261863590016433 0.002644045574331998 -0.57677784031406287 -0.35242859730766107 0.00034262747607803368 -0.2037072808736769 -0.0049984108970149953 0.19613369323814794 
0.60433212652560109 0.19996268725566785 0.19512216797218501 0.59973099698092214 0.19013351623869801 0.81750570863318217 0.39995052707013767 -0.8001405547071565 -0.0017996730273504092 -0.59107834849646068 0.82587093448671445 -0.6001649855868979 -0.20000236930952403 0.44364749093819711 0.20461179896034057 0.19490768154522162 0.0005821886903557259 0.058987920097960563 0.021909097731255187 0.80002531326611248 0.21570923331233655 0.19995573640039566 0.60002721195131459 0.41540017025156228 0.81582535022959446 0.80388138867656778 0.62117755246232675 0.019042566942604779 1.4391203919011671e-05 0.78391151624701427 1.0443205553333998 0.19724177175462385 
0.91738048457643595 0.59983805139308188 -0.42534885864919381 -0.81174384605795047 0.53985781672749455 -0.5700246033206644 0.39973978991873405 0.80001732071204268 0.55786220041377932 -0.43194997657484979 0.83903599962607534 -0.8001966859542593 0.60001687208482468 -0.10792241127253728 -0.33524875418377759 -0.765162287706179 0.020790684132411322 0.46727713081842914 0.84101926445107211 0.20103798348197716 0.61920535300798341 0.59832656779152171 -0.39990789061986987 -0.7884235636538085 -0.78712038886508062 0.015708027095974467 0.39256589754353594 0.68839842757253811 -0.2007326004426476 -0.85704642671843934 0.57237233411712662 -0.20992162518350993 
0.31524711977708197 -0.00042282289907460242 0.54180809016425446 -0.0089038154941378338 -0.18038749435857818 0.86141463564044407 -0.80024136623836717 0.39961872282323313 0.46334751077165676 -0.12188464320596686 0.45529597425600088 -0.40004270038752487 0.20000594117443449 -0.44418729559020259 -0.12176192740307393 -0.60258517796457856 -0.29238504144362315 0.086910960001969059 0.4615021171430585 0.80049812900284789 -0.044283233177144284 -0.80103540144538143 0.59987074928555695 0.60517393858891566 0.48907656296226154 0.62990901448338543 -0.6736364771376474 -0.67797802068661028 0.19069372333190732 -0.45980188854443155 0.86864175808677968 0.29052276960594109 
0.077713040192910018 0.59844111612716233 0.62598473794255027 0.26824581898766942 -0.8819099126779697 -0.28321890546202022 -0.00077380845255870141 -0.0027858599013067336 0.13067399099615795 0.84490802942646037 0.7293500693040379 0.00010136596610072285 -0.19995334031786793 1.0415424515699119 0.72387252444003192 1.060215990506949 0.060185535570150189 0.39659210629732866 -0.14305769208957794 -0.0047733775420181505 0.60429905604897904 0.39547539140476839 0.19886580695223771 0.47303768160039356 -0.7110923704189831 0.60031071815408188 0.40098012091304985 -0.69324740178173228 0.79846201840808706 -0.039673287105981392 1.3210710116500548 0.12759449115212876 
0.53865278828161378 -0.6077231423462417 -0.21323411310540918 -0.18473512706493964 -1.1536981922873211 0.62038954485154696 0.39879668621403314 -0.0045218692246352709 -0.16298952031240327 0.39566589159047211 0.63074085185429529 0.39836618668459123 0.60005859776686832 -0.067176197702286569 0.41806433208269328 0.16963716141255344 -0.18428515888493607 0.056603571471568873 0.58485156695510532 0.19120015015453973 -0.60256134552881657 -0.0098452473187787739 0.19927396065554559 0.30338956619860785 0.55210242175866031 -0.70798391780676151 0.0063343903439967968 0.12091315013318432 -0.40558111803460706 -0.81880046637548576 1.1804314776993279 -0.39287543076344761 
-0.076937681422658402 -0.41076281920415475 0.5677761119236634 0.26913290417471519 -0.95168907543666936 0.36278487943507576 -0.59975642722043288 0.19549895750796423 0.40161757237041829 -0.39454842654373362 0.4215917880709687 -0.6042538482806955 6.4400271754070349e-07 1.0986592831307 0.26220552073669512 1.0731306629033937 0.11022375033693137 0.14865573731799098 0.41221697551405356 -0.019928828123620984 0.81623595585048425 0.18858634253513162 -0.59952905690285885 -0.51115393289747013 0.50949877828214862 0.0063631927863720805 -1.0738681391758966 -1.064782357943967 0.39963019532962374 0.19158512360371155 0.59082758520194334 0.24348075481139467 
0.25199374809605096 0.78871088802370293 0.43561492598889057 0.49246949176375493 -0.082155424921092707 -0.41562468211404208 0.0023902157114897662 0.79310202064723856 0.85017124654220777 0.76001452437524486 -0.18411220170260501 0.59393492867754738 0.59898100216229588 1.066245653408135 0.57797683768392538 0.030364072930387582 -0.019598767677068321 0.96955234913377975 -1.0135955843998214 0.39171656596598847 -0.38100445498385321 0.57464147865530246 0.80653255142975255 0.084887619010356352 -0.48828089225208809 0.14689528410596922 -0.36827158388043896 -1.0320843667382795 -0.6900410528616564 -0.10157350398625102 0.20151472885222704 -0.60363484207819884 
0.28206567562538665 0.381963000722713 0.14821076119969603 0.37766883645550514 -0.79281822311642935 0.59214594645182617 0.40658720144998922 0.78726527478877184 0.01055739635538273 -0.41718314799565881 0.017132822367537204 0.38875589379841685 -0.59550222245198359 -0.066230172755737171 0.27807212833304962 1.1713074419686085 0.43028847773890061 -0.28389351186390233 0.2743239193798685 -0.87960065383443797 -0.6618568091403314 0.38937786140471237 0.011615709042393724 0.85944626035021643 0.033393511018933786 0.69661964614647809 -0.85468449865313056 0.044543028485817489 0.094359254803421708 -0.64943247067506404 0.20305837630033935 0.13165494523087215 
0.71617415982176313 0.18023077019351152 -0.46041704058245803 0.37604922519259959 0.19791276079646813 0.74052787468081105 -0.58459157002697171 -0.012719050796012477 0.61565662567190238 0.63329892717197633 0.16241963124152337 -0.40665468032996388 0.40981918008647594 0.79801046516812357 0.73126927509213291 0.54499213105188504 0.79774582871064037 0.044878134033975906 -0.66329953696386479 -0.66647661026774141 0.67578761707020463 0.21875754700497049 -0.79340554834940069 -0.27653984111327273 -0.25564061630532181 1.6243577927851727 0.36770838694563257 -0.36328441448300741 0.65421866583750188 0.025103968910745768 1.1278706103089264 -0.93275630354019801 
0.28612582918691259 -0.78549484581122486 -0.18625073848752224 -0.099785989759496471 -0.086781491430180699 -0.011861433462289982 0.21759532435390908 0.025822658479679045 0.054762389240150505 0.58476724198603658 0.81537287250644175 0.20334081567944604 0.60020623964398223 0.49896363427132739 0.16264489247654407 -0.29665362609498425 0.11117853677244635 0.41405392554743387 -0.48468512462266744 0.0077904775763177119 0.24817949654372196 0.69229185020095474 0.79617290129221652 0.061294335506983717 -0.25877629433737415 1.1212401811707993 -0.54190970572514341 -0.32193360968507845 0.11042545804248799 -0.033581969642711491 0.6607449520858828 -0.75176088647413308 
-0.46698067449013447 -0.40752991868911748 0.35661102662149691 0.58268213101242039 -0.050997455773144934 0.10712455977477904 0.60422966058015626 0.19318298686924726 0.40665920751469903 0.010343143564487983 0.34942549035260712 -0.18417290991002724 -0.010324737330198713 -0.10476989055406427 -0.28169713513506173 -0.12344990628458102 -0.63892903612199448 -0.11291684011646513 -0.93737080647880122 -0.22813806913667797 -0.70585287782834305 -0.32443985344833159 0.38278794260805471 0.85804920442706789 0.40377110420878637 1.413422781130222 0.1577066967761282 -1.6783846664271678 0.85538634298455762 0.26656625013243263 0.91846797109169576 0.32536247898256421 
0.089907874480795041 0.59502769776510256 -1.0983844770958944 -0.37572089231014716 -0.8334457968931368 0.4745495014076111 -0.40082137862945916 -0.21378327937119052 1.4742104331328276 0.2080617780524063 0.051500934837241566 0.6101744150631222 0.59459031234040638 -0.1674428873819104 0.63966751693842272 0.31729207851634822 0.15397686543381214 0.17217509408935969 -0.0016411189427236095 -0.20428940390064596 0.63492549542200449 0.60486317085012331 -0.019206149095987095 -0.14992856741952235 0.65045463026504546 0.43599929248153391 -0.76629986536779204 -1.1641755550270707 0.7511739982674005 -0.73834886634290531 0.50723188221697413 0.028265419444970855 
0.92695318952918992 0.80513997901882661 0.1475939166732286 0.19367496268792606 -0.62357763993309201 0.59295815523743367 -0.40062872297447155 0.0045285190484040897 0.70674340317822471 -0.27712863020127942 0.48824959595057699 0.0078295723402175988 -0.40033735301542217 0.36800748585742754 -0.041537966365426553 -0.10270477304291442 0.44378900075953037 -0.99850660415427162 0.54099715167540119 0.21311682876430768 0.06866977230232757 0.045611896001036253 -0.0119314301399829 0.5454309702101644 -0.37736519534381752 0.16275247721023828 -0.24924470951766481 -0.71199012163481767 0.15303913104601649 0.039055655502032348 -0.65109121031467432 0.38248555069083812 
0.66333271328364429 0.40430370600695953 0.031814301286413549 0.1389029620157638 0.14226682087221545 -0.40702816997802077 0.20033075155308194 0.20775291011722483 0.27099445005678496 -0.62986052319242369 0.30052479332322074 -0.60004701642525149 0.0043525670853841606 0.028684421883584187 -0.37240378327430612 -0.13605715934453189 0.13201448258310708 -0.62794504186010858 0.47786505786528055 -0.178376179093858 0.4890714748057664 -0.1328946090662759 -0.0029350127525133566 0.67735670030074424 1.065214679807972 -0.44603348054493808 0.19573723584951222 -0.68196766099532224 0.035543510250098172 -0.39369176024861374 -0.91475657677046707 -0.46921646561453861 
0.59497760587943282 0.80067903542186158 0.40001422506893258 -0.54105595300831355 -0.072601429862702904 0.54167400652761288 0.0010094822571756039 -0.19543165355818695 0.12070389337890529 -0.6259791161243744 1.0042463140567355 0.3942836760380965 -0.39731811650308163 0.39371635860921578 -0.41254674420060811 -0.52838207391612924 0.13353263620298308 -0.56260666204087706 -0.080456595942387785 0.41724404232983264 0.95450558375366501 0.44421286632829116 0.79890255132317145 -0.32603928227931406 0.45326166162752618 0.24989651998011861 0.63765639840259936 0.10620129112211234 0.63429636918303034 -0.59516700143801293 0.41190483981466464 0.38882823479562356 
-0.4964275458081826 0.8041124080749813 -0.16743274092358912 -0.14072778291196616 0.50415354567020976 -0.86319147777441707 -0.19873883355816704 0.20081910523689409 0.55278941509455681 -0.034916324143805792 0.25922606624702138 -0.0027886024063925618 -0.19696382924653519 0.3680514874842456 0.56669428008786937 -0.13976398505237658 -0.11625249585494227 -0.26442076529496572 0.5176399030409452 -0.57346663526907515 0.0062028105299418166 0.046982473879155218 0.79993486868421881 -0.59256435307695776 -0.34875397102514288 0.32746913453899884 -0.60829040067128926 -0.090394226600567743 0.74099598600425609 0.58731484806677092 -0.68546049419130617 -0.45143107160330254 
-0.88991442385191499 0.0025891166111263256 0.93731174033125797 0.46416594753170787 -0.55275952169360731 0.58035281356253643 0.60008292077198377 0.80106403577706176 -0.96960390290069209 -0.47269812472734246 0.41152958731059125 -0.39970404067816356 0.20101960045377007 0.14366694636144187 -0.024992391358011793 0.12601455934699626 0.34461865905082695 -0.28369340143553862 0.16451416066274396 0.20439732378872361 -0.0047524544924662524 0.21952226608950981 0.59991755577492656 -0.74059429563241352 1.1094448219110382 -0.93977349075552552 0.4163744512594042 -0.152881982928844 0.40907700404073893 -0.60177496566255884 0.40148521330830395 -0.63713917758166927 
0.56378397977974148 -0.39982571769721781 0.91046749738076138 0.13244699776145102 -0.67815541118230382 -0.73679814497916607 0.59999664235905803 0.001155597648211486 0.24071297380567336 -0.25289278860328651 0.89552300840684285 0.4000629846280504 0.00033568611098187644 -0.043362177713782195 0.089544964897277604 -0.23708719973449036 0.19047241110746788 -0.64761930425915726 -0.39733812765852411 0.19088318321208975 0.76090215773839265 0.20520821251992805 -6.3013214520661788e-05 -0.68729804837183617 0.3409166235044731 0.75821868506719836 -0.53964779395458229 0.36082368808184834 -0.41057148712098834 -0.20010476116325779 -0.027407321340393906 -0.040235546766835877 
0.60947572816431195 -0.4001033656442155 -0.7961761221641851 0.15148427183637544 0.8425538851275447 0.716836219312592 -0.2000041437859193 0.60010827913636045 -0.091542447364228521 -0.6645954673301212 -0.30565703332647448 0.20000359072082144 0.6001129891731416 0.380021005244497 0.68333660068563917 -0.46589916867946868 -0.0012372368055233239 -0.1732751949784011 -0.29111012469001635 -0.0082322430541493675 0.37201534486007914 0.40131487704064162 -0.60000722623436298 0.74827115956361367 0.2374162786743767 0.80503430616435212 0.06500724200649563 -0.0072268199165228132 0.19792403491144739 -0.80233101138851126 -0.74052680984988983 0.39099838224537603 
0.22484164069813992 0.59996545382022826 -0.39844959907535726 0.46528954639854292 0.40561023393131385 -0.013894691490797619 -0.60000061360791246 0.40000160759859238 0.17738397302741701 0.071873238468028983 0.60508343414592913 -0.4000073141558062 -2.4944403694837837e-06 0.00016999146803814576 0.23487120037705825 -0.084599783886608437 -0.79996750121932003 -0.58622395152146312 -0.18738134265131198 -0.80040862825188619 -0.58845012942937025 -0.19997564392009406 -0.80000112610173657 0.59464302305792982 0.44730829038432257 0.0049777131681502801 0.82866444522043714 0.39713078102563121 -0.00030743644721882183 -0.20165491004539052 0.02865217901927903 0.39942693508451338 
-0.0024090579309588166 9.1864633444596134e-08 -0.5999943917868793 -0.016635917673103802 -0.39285779845834679 -0.20556978911029866 2.0424234677711944e-08 6.5507923260174447e-08 0.39797671527004319 -0.49521862816023171 0.81591065556288944 -7.0569670729019681e-08 -0.3999999877956506 0.79981738999280361 0.040161923242402413 0.094432006086820133 -0.79999673961552675 -0.82083718061001443 0.00035834042173540258 1.8212755428895295e-08 0.59689157473582277 0.40001122593176341 0.7999988033819968 0.013844067194920377 -0.00026087366299209987 -0.59238895428008553 0.17323093875363405 0.60000564107313148 0.39995594805104645 0.80000001716676661 -0.75600168485121133 0.3997339477193162 
-0.80000000000000004 0.40000000000000002 -0.40000000000000002 -0.20000000000000001 0.40000000000000002 0.59999999999999998 0.20000000000000001 -0 -0.59999999999999998 0 -0.40000000000000002 -0 0.20000000000000001 -0 -0.59999999999999998 0.40000000000000002 0 -0.40000000000000002 0.59999999999999998 0.20000000000000001 -0.20000000000000001 0.59999999999999998 0.40000000000000002 0.20000000000000001 -0.80000000000000004 -0.59999999999999998 0.80000000000000004 0.80000000000000004 0.40000000000000002 0.80000000000000004 0.80000000000000004 0.40000000000000002 
-0.40000000000000002 0.59999999999999998 -0.40000000000000002 0.80000000000000004 -0.80000000000000004 -0.59999999999999998 -0.80000000000000004 -0 -0.20000000000000001 0.40000000000000002 0.20000000000000001 0 0.59999999999999998 0.20000000000000001 0.20000000000000001 0.59999999999999998 0.80000000000000004 0.59999999999999998 -0.80000000000000004 0.20000000000000001 -0.20000000000000001 0.80000000000000004 0.80000000000000004 0 -0 -0.20000000000000001 0.59999999999999998 0.40000000000000002 0.59999999999999998 -0.20000000000000001 0.20000000000000001 0.59999999999999998 
0.80000000833564988 0.59999999999499265 -0.80000718581457331 0.60000000008764964 -8.8184556451165753e-07 0.39999830436092393 0.20000000000047891 -0.800000000018946 0.19972270261167149 0.60001489904699523 0.20000001302899897 -5.8024149316793959e-10 -0.20000000000042303 -0.5999999987361736 1.0436915238814916e-06 -0.20001492644528546 -0.60000001062817609 -0.79996390923284144 -0.80000087912203677 -0.4000000054369382 -0.79998932287213742 -0.59999999050297881 -0.19999999784586434 -0.59999351144092039 -0.39990573518872541 -0.79999997599214223 0.39999990853077871 0.80000099951541581 0.5999996736881209 0.19999999932120438 0.19992643999690524 -0.20001378426373778 
-0.39969395506561062 -0.19999989857715994 0.19996981492267932 0.60005048493056456 0.20002583104254737 -2.5987169464712028e-06 0.40000000574109779 -7.2806853486378177e-06 0.40031902103415384 -0.78356117019382732 0.20185307178952025 -0.19999999093689577 -0.20000239487575569 -0.19999991006246687 0.59725975483589167 0.19846070498806379 0.39999921342218114 -0.59998225255256421 0.79574001521900106 0.20000194079043976 0.80000970296244778 -0.40043872956048027 0.60000003444958472 0.60005250265523491 -0.40022102771140383 0.57731488995612601 0.20076301317503858 0.19995644517539221 8.0642847812190886e-05 -0.19992580298367232 -0.60060536018860367 7.6737659575555625e-05 
-0.0004385504207351865 -0.20000395699885676 -0.40778940668540503 -0.79814936075257004 0.80000933121312723 -0.19968326644754827 -0.19999996567080056 0.39998373014146804 0.39850614386261818 0.0044481395772455008 0.40528164560237406 0.39767069412385442 -0.4000012150627269 -0.59585301994824424 -0.41152208858197287 -0.016399849978216925 0.79405612130310976 0.19829886121068974 0.37426173923595052 -0.20012587670339843 -0.79616074217367161 -0.00018194785424741243 -0.59999922599074362 0.0005872784456957803 0.60495609639982961 -0.60523711170082073 -0.0028319046619890067 -0.79987013543413199 0.7994484447373883 -0.20037534748598107 -0.005005623959197722 0.79973986101501904 
0.79571811103935397 -0.60003554299035311 0.59993687904425264 -0.80207235832989054 -0.0032836176056273178 0.76355207289043137 -0.19999349465351818 0.79984488017902289 -0.52143020134529028 0.5957436490512622 0.027212403227807776 -0.80947870835293723 0.4000020039419887 -0.19106347328958823 -0.42173940418171041 -0.83572923722949533 -0.0053539600995231766 -0.39723086405167429 0.53688979091356515 -0.0063299078349990621 0.25415890536175223 -0.19922668515027039 0.60000202710752892 0.80108392048644039 0.020443309482834779 0.79978115173851061 -0.41242436448033343 0.40413045628854632 -0.40683231028947608 0.78307313238791998 0.42468146729938444 -0.010964919872087836 
0.48748409799211601 0.79992476452973305 -0.39920132891881988 0.014739688612159385 0.1948037500482962 0.20901069194927821 -0.20003966460104255 -0.20122913020547736 -0.5457410610697645 0.094066349361405954 0.58286088637552991 0.58051415971630638 -1.2486275102378588e-05 0.75389128909507475 -0.55288245941720804 0.33057499983259558 -0.21527468362596047 0.85971417272105999 -0.13360197415578917 -0.040766051997575402 0.055313114913701569 0.00020200616710840767 -0.19997014764957868 0.6021019425798263 0.86585682872279435 -0.77475882751365077 -0.69454618255575029 0.019845691267848419 -0.2295753807518493 -0.027422446408475378 0.52880102082859892 0.5085232747736812 
0.85031309822772749 -0.20026276263288709 0.74731113083053247 0.47253134508390199 -0.84479943344719022 0.11999782217511178 0.79993619889980849 0.19750746186843127 -0.52623362852979416 0.8832966758671883 -0.18440089367842552 -0.07196476225253147 -4.5602434679398387e-05 0.5570470469090727 -0.6637574891400766 -0.043225415313849554 0.12417325763176637 0.47149853520962376 0.4372204971687122 0.35890416457737917 -0.3545638126467815 0.59673422617757554 -0.39986467323194735 0.20555116868301898 -0.53779401923811854 0.81038799164973185 -0.077577858843743366 0.21178183784675927 0.3158943093387096 0.52626834156205882 1.1703219992829383 -0.0091613437391324347 
-0.087132038985277299 -0.5993276728302025 -0.085063494823965649 -0.10335647844009356 0.50505055181274061 -0.065223655509700412 -4.6723237666221196e-06 -0.0011572026908637319 -0.39681746927980927 0.43198602458714247 0.026299471470982265 -0.6703372829570402 0.00067330802417995541 -0.98097767357095123 0.38725594996497165 -0.79039193667899454 0.70999377985376166 0.49517004670477688 -0.30061737981823927 -0.23496596288636015 0.34286184161763766 0.79504627480384238 0.00015820780223431755 0.27643375067998788 0.25074238479994826 0.21597528684761014 0.29259509501759134 -0.60267427661691142 -0.085334977352138588 -0.070319200846141794 -0.49963129868984313 -0.41939094465767712 
0.33327004353847489 0.6011219425997768 -0.80119658793589088 0.68564207152977297 0.061842285995324861 0.65238938313681016 0.00054442706585401744 0.010344433962459617 -0.59192379334635725 -0.4515028734601389 -0.38767798670058462 0.14445812351895229 0.80084655696438145 0.31468279967019852 0.48533834238303236 0.29054747887447518 0.09102152397309253 0.48666627277755697 -1.0293609090253102 -0.80126703168517566 0.55537426442669557 -0.010383989072971221 0.79851010308990211 -0.11405055858008156 -0.52202498527621599 0.7590448399648223 0.23112410278387144 -0.4271714848283712 -0.11366350646247769 -0.55566056363955274 0.40473175778871345 -0.057624509049703336 
0.76668407596746901 -0.0027103106501039373 0.16586595884041119 1.1733929294865109 -0.7257201305502281 0.17706177856963498 0.4032087891539608 0.024747188741874277 -0.074411200541780492 0.13065116212244363 1.2301706620970843 -0.44099156226076569 -0.19465057049896811 0.81277066036299517 -0.61841606452821407 0.75084829425030131 0.22061217191395915 0.20457092883925002 -0.059652778446221515 0.41542782472479522 0.63319011537838465 0.052545312235401119 -0.20300831767932187 0.9747624876651626 -0.12975953427463521 0.14200621590803045 0.15779913607907764 0.71842493499660032 0.69065348053788711 -0.050379557350101765 1.632420252340206 -0.17095918713531255 
-0.35463730101542845 0.59343371718556759 0.040217019292497672 1.3116624163815209 -0.8749280555164749 0.31163271232806616 -0.76653741812053122 0.22137406889103828 -0.4979369867751649 0.5342567276869189 1.1149159823646373 -0.024181415665598685 0.40172603823577796 -0.18688174784728712 1.0678130699102295 -0.55775898893584386 -0.27616500342973749 0.034022252665653875 -1.0423139537368507 0.7795367595389443 -0.31834547849361722 -0.11472525352760775 -0.19548231752130063 0.34680243001162786 0.8282645155147208 -0.33421852945194602 -1.1493111313421391 0.05044111390074759 -0.35574105513456461 0.72176544639262996 0.19375484325900616 -0.70709495038330517 
0.43102291141966054 -0.0013735451991328416 -0.33994820111659441 1.2036067780161339 -0.49585475995543588 0.58189147695996579 -0.16644277149603293 0.4287527541732033 0.81812731177598952 0.62250589889383945 0.08066594804984345 0.58885719657272539 0.80101438166189265 0.84075317738532351 0.29065627583266757 -0.3108422818139317 -0.13664432555120579 0.17136635363020752 -0.018489178180997819 0.30480096213725383 0.079159961034145659 0.16410342140845463 -0.19057249977676424 -0.3447301647573297 -0.080348258022258881 0.072443945113623134 0.36691695311172939 0.43028580908316277 0.48278722800785634 0.73177925657843901 0.35688593697497789 0.39987601739426393 
-0.14132981004208306 0.59965374372387681 -0.54786845689075769 0.96002918111267888 -0.29800964028170562 0.37428422474966527 0.44226223763975586 -0.16790890903736952 0.23206515899088997 0.1517656143626494 -0.31285802414321012 0.21961661886381056 -0.18192190862814994 1.3781158146629913 -0.26054963176525747 -0.49327475478218213 -0.65345578700548668 0.38738380798823663 -0.37258319434644382 -0.12382039501377531 -0.013839732310258689 0.26027694171916693 0.2094415939709614 0.52673463998515957 0.55684543990640489 0.52413913873859841 0.074182639586767157 -0.37690668445293424 0.45196831875216248 1.1842413187472876 0.75792705317488251 -0.20752682872758535 
0.48984761494065177 0.78468850295880654 0.073989891632590482 1.2389156078000849 -0.30225666200172968 1.04959947060445 -0.7883324512487121 0.41771282310269409 0.21297406090671273 0.67039988601031719 -0.16546475275049913 0.80514869170237635 -0.14436859188963716 0.68716022008617561 0.65088840701636386 -0.10031039928948078 -0.093300466206167498 -0.40946320807622166 -0.81752934211707595 -0.84650669777790311 0.5539140492672332 0.75086288142312296 0.59499410622679949 0.19499779186532357 -0.2266329268302312 0.23610104679845889 0.83214667322885327 -0.18170242473321979 0.9331163633690952 0.92600571600876724 0.023517267184892218 0.35918334608056735 
0.17188606879636231 -0.38512416218693468 -0.56781759812928512 0.52386770328124355 -0.32590864917398615 0.053140153978972288 -0.24473670338379844 0.79877130574874755 0.42265301188323545 -0.36985234209515189 -0.094090664463385473 0.0033378760555848779 -0.3736021427900959 1.2143426487545914 0.088723364329912111 0.30184616650842977 -0.16483665663521485 0.24767463228256803 -0.013159842550455603 0.33955677282181701 0.38810828284155124 -0.32263400118699154 -0.41433859103491211 0.24784108677003849 -0.59189690744784196 -0.23855246116186851 0.2571081095863475 -0.33694245529009897 -0.015026705042608697 0.36321980742125232 0.45686684281590612 0.020909711438127702 
-0.29104188014685456 0.23351429026973636 -0.0028745329658790642 1.0286105146460245 -0.3455303302028172 -1.0589868535628082 -0.80930903040053725 0.22850656549792706 0.28829873577462045 -0.047730986034129556 0.5471748718827949 -0.16233886017374857 -0.75230925353164635 0.10561847141617696 0.2194267161513484 -0.95773225492025083 0.32138460694248816 0.019753345006189218 0.1853254777812679 0.67158219419698451 -0.94174689089811503 0.41869263550650837 0.40896558825545631 0.24610839467899487 -0.50374181885067637 0.77514632969072839 1.0029086882136609 -1.0176484369314958 0.41430596984925516 0.40986959526326239 -0.46118742973016413 -0.50947386803372863 
0.22358763434939211 0.80629007380131346 -0.019411305440113012 0.62534306396626793 0.055664074212900733 0.085500582477667134 0.01748681287356171 0.40708152012009685 -0.21860963472136893 0.018739686426641061 -0.26457610558585126 -0.15432621922524176 -0.75516527674046052 1.186498951927478 0.55760022337282067 -0.022193801911896752 0.59996938498487873 0.57536957626642937 -0.82125474695588585 0.36853328055194207 -0.19489857304802352 -0.41828292484506147 -0.1916583917768461 0.1745923574193507 -0.63619376295937391 -0.15447878311774854 0.10328391972821317 -0.4451959681809981 -0.44268277068851719 0.18176248759293887 0.83202245065353109 -0.06290472161382199 
-0.039267473512728968 0.21015554672181797 0.23939653879712541 0.10920836077174678 -0.70389947777023676 0.27200032078126346 0.022202907139089609 -0.34474084531141602 0.23304632128943334 0.030093998261884986 0.07526240938496509 0.84913827610655412 0.61899163079296982 0.01569509459396384 0.27988956879239651 -0.47795812769848478 0.27692579135699369 -0.070924884707238914 0.2380308196478087 0.19241960137603176 -0.47984548467178023 -0.72857699710470358 0.39439576484660477 -0.33010810233401389 0.088632611365820541 0.33698413497255003 -1.0740345911192715 -0.44126071962179325 -0.45051796973067587 0.39180581990603913 -0.21557124080569956 -0.86432454811369597 
-0.12235541314669295 -0.39035357780291047 -0.93487460180840898 -0.71084141607869711 0.45858966384975369 0.49437127068224929 0.60495697489268663 0.62971079197013058 -0.079552585904271722 -0.15941298077457136 0.26563510833281084 0.40945439300983077 0.19583602838802577 1.0669996030662345 0.32211094434219278 -0.51759051748020735 -0.0089578567243900429 -0.64246896968465272 -0.49275864886426579 0.0018973714237319993 -0.4093275807194614 0.39541559621844558 -0.40589538953638904 0.11945568283630377 0.38037224455905305 0.28262549005093823 -0.24339898448286407 -0.32022071534365487 0.13782197633154861 0.5059709648002626 0.61673998897531379 0.28626173780421699 
0.018506643162997487 -0.59229745801162292 -0.51415877132166277 -0.030221727087005996 -0.17686109894989088 0.35404804636075954 0.00057507604458476751 0.20767957297772663 0.22563425185925931 -0.77383535760939126 0.10007176351609803 0.5966104806245115 0.59339645552857367 0.71462783201674551 0.33550848526279109 -0.98004119426985448 0.31567676026443586 -0.15633953994281793 -0.27417463444387968 -0.41423741318670132 0.30208925407700465 -0.0045482264568045419 -0.016086225816828073 0.5981879917388444 0.68517145313692762 -0.31919783567621152 -0.19682157921521112 -0.20167805128849756 0.74670353199920203 -0.052279120441074627 -0.34679998980884597 -0.85882328167001609 
0.46648100158764283 -0.3901938712134404 -0.47462431079306222 0.74284645459857546 0.064448609353528682 -0.70608656771166556 -0.19724859546005358 0.014392181551125174 0.17630118817284046 -0.9789954429344917 0.73655230512768066 0.39898007783226602 -0.81455017400717755 0.2341307225528152 -0.033999748931738322 -0.20725158076331648 -0.34770218125828273 -0.72017802136746778 0.63515969526665372 0.62813585773019642 0.042601129978997523 0.19538559567299982 -0.015518584693084909 0.066949789541158669 -0.36491003973552927 -0.2634077279388457 0.071985122232715817 0.83701668192539558 -0.31204330800299102 0.38346421602060538 0.054860008647163942 0.24656957958638889 
-0.28582142848208686 0.61255829161790853 -0.01203764165523717 -0.38577455255558107 0.45989644797734458 0.23934246302839252 0.60747298219146217 0.0058818831412359752 0.20541567134647326 -1.5347997179136921 -0.11786912861417088 0.0017024065668176053 -0.41143007152588817 -0.24264644711412697 0.7900919875270217 0.32674309822310499 -0.60329869477057851 -0.82056888088875823 0.053183583382277314 0.077471578407610875 -1.1803514934195041 -0.55429321930618947 -0.59841022978243663 0.58141106666118314 0.34091965904721189 0.050531811066378773 0.47822318797766933 0.1554218588590818 0.74968323242940504 0.60487913460417408 -0.58397202360239819 0.36417260532874873 
-0.53753614503188463 0.008273255753514553 -0.10553301825214556 0.10578432751811911 -1.013538169509782 0.75387882791410343 0.80252401287745823 0.80319147151399439 0.46964497261270433 -0.4397798772440355 0.27200083597444302 -0.39849244460686523 -0.79195726136649702 -0.75862012961412939 0.17186061182265286 0.44108873771889023 0.61475986512757874 -0.43898668049534839 1.2721822728005758 0.02359398448435563 -0.0050311481218442075 0.38354211850769759 0.00035969820306146801 0.89370134652051658 0.45452243756354249 -0.066813073643597704 0.25131127186231422 -0.22020346022150311 0.60798933193800331 0.016909987016049278 0.24150794940542236 0.15898218117880655 
0.47261127023543958 0.80472253491132884 -1.0430867227957235 -0.031197773235185047 0.39789083266487363 0.31666954413830894 -0.60000228600033378 0.60199201925681245 -0.11546282675931269 -0.81200335209567376 0.38593708677821392 0.0020525450690694548 0.81189557196696449 -1.1752990174714462 0.0092315101799114868 -0.3405188919956415 -0.4529875655811969 0.16278451515981593 0.80632412825911381 -0.41113508643890467 -0.69691166830207241 0.18072956477889462 0.40039362013028734 0.0084578537796665618 0.50400661768630173 -0.83230899341361364 0.59485913388456713 0.21476326604133036 -0.22981451243113424 0.41638967338637067 -0.22570122820865185 -0.79790718390250004 
-0.19176431946449066 -0.79642647504483199 -0.46817199781782293 -0.010666352549008098 -0.30466581704954798 -0.062027906081170418 0.20011783883899864 0.4010120571894597 0.78578406096073294 0.81410223615494182 0.36546895069315266 0.0012581139057542118 -0.19967607421725858 -0.075741546237505272 0.54072973830159499 -0.3257314359857067 0.7882088432202381 0.014825835120343868 0.41226317621098685 -0.80767566639093669 -0.55671615585950884 0.82581870288072778 0.80037119601399853 0.13619477006559971 0.89317063824499565 0.12767749544995399 -0.16156595929689127 0.92323299767887734 -0.023061094223512046 -0.19598950609842969 -0.34344589691826571 0.56037092921961595 
-0.81633609515189665 -0.1989429457507649 -0.015271528678946563 0.19849332511955628 -0.71308586854772316 0.3701442792475641 0.60001791643947222 0.00023556284981987447 0.17661066282469595 0.17999508807851938 0.84801282341482187 0.20016533364318689 -0.00045164010063287677 0.78823278400192975 -0.051244231451285892 0.60037862165776734 0.39770261755467284 0.01499280338729112 0.027639903122508015 -0.60004615229695635 0.58870240020156128 0.60027829532221488 -3.6247463538834853e-08 -0.13477965465266126 -0.088483943585004096 -0.086184348295451629 -0.14651875309582876 -0.78443061244686541 -0.4822959741861278 0.20216633600910158 0.16854430186025895 0.59662954143511204 
-0.022040161040728052 -0.20000089750489877 -0.81505250883310498 0.68660754690745662 0.60201080649140271 0.1849197304066498 0.79999946924052623 -0.20008229836876465 0.23892592058554102 -0.032598876921355061 -0.36163628053003433 -0.40000462814057791 0.59952487760259798 0.53406072284909512 0.23626325435102005 0.53037354547668059 0.79985336120929418 0.19786694819199876 0.60294491287702723 -0.79999724986708343 -0.0070245755295948913 0.00024213767164988609 -1.7707211159215308e-05 -0.65827829877479171 0.50945223370093151 0.15443889414980697 0.80115155941350602 0.40743116144750691 0.34694827558327179 0.59999759619646109 0.078055157848752749 -0.40139400391118291 
0.0005318315290260495 -1.0577310316124557e-06 0.80000705411235085 -0.19671016721341733 -0.79888991150518718 0.39842906147969748 -0.80000030554649726 0.19998140698240985 0.20202959101093046 -0.83969686702600788 0.43529038477817239 -0.40000385164662877 -3.437322929368978e-05 0.42337677267036811 -0.20550686831460441 0.43145156114216315 -0.7997223585832357 -0.010152689967796226 -0.59711122964382402 0.39999990327272894 0.80002611037491689 0.40029352831337944 0.19998225182230175 -0.20636444263539819 0.84265884211694675 0.41351206595832346 -0.00010056647956827727 0.60179719022802747 0.79564025703441887 2.1642347645701608e-05 -0.37346857175618225 0.40000718672503 
-0.80000000000000004 -0 0.59999999999999998 -0.80000000000000004 0.40000000000000002 0.80000000000000004 0.59999999999999998 -0 -0.40000000000000002 -0.20000000000000001 -0.20000000000000001 -0.40000000000000002 -0.40000000000000002 0.20000000000000001 0.80000000000000004 0.20000000000000001 0 0.20000000000000001 0.59999999999999998 -0.80000000000000004 0.59999999999999998 0 0 -0.80000000000000004 0.80000000000000004 0.59999999999999998 0.40000000000000002 -0.20000000000000001 0.40000000000000002 0.59999999999999998 0 -0 
-0 0.80000000000000004 -0.40000000000000002 0.20000000000000001 0.59999999999999998 0.59999999999999998 0.20000000000000001 0.80000000000000004 0.40000000000000002 0 -0 0.40000000000000002 0.20000000000000001 0 0.40000000000000002 0.20000000000000001 0.59999999999999998 0.20000000000000001 -0.20000000000000001 -0.59999999999999998 -0 -0.80000000000000004 0.59999999999999998 0.59999999999999998 -0 0.59999999999999998 0 0 0 0.80000000000000004 -0.59999999999999998 0 
-0.00028694588001971474 0.19999687590646337 0.00066060302358821466 0.800658910137661 -0.59999645939438839 0.79998422713863537 0.2000000821752112 1.6687052552628924e-07 -0.00054283457649372544 0.80206510973078904 0.80668829801608577 0.59999994886235031 0.39999937520443146 -0.39998240329004092 -0.40059998281197123 0.19971625143332347 -0.60021103096687045 1.734239030683237e-05 -0.20151289409068723 -5.1426492699573797e-07 0.40015933397632109 -0.80005667720482154 -0.19999994369478055 -0.39942383480303517 -0.19905046519950922 0.79624611234733034 0.00099828480656393576 0.59933792685450615 0.79916140987155371 0.20000963788566128 0.79980733783760949 0.20097598286932897 
0.82077186965270432 -0.39999871751021282 -0.62975217135888617 0.81675502756406038 0.80443097474532044 -0.60203928411919416 -3.4227697119256918e-06 -0.59999387680531768 -0.55860191539333826 0.40648885550900676 -0.77798302698498212 0.39966550227904191 0.79998122510043501 -0.40318021584715374 0.5212089288638867 -0.040286854198309061 -0.039305280135935886 0.59640245192195407 -0.3209768060060752 0.40002636693389987 0.060326257120302623 -0.80188243795837766 0.40001793459858742 0.40316742759996849 -0.78173926766012414 -0.21290709279645251 -0.60999250214663459 -0.78758231217242591 0.39603085542350758 -7.8656658860921483e-05 -0.45339994317095478 -0.41789327664295306 
0.29582600140695858 0.79993878707575727 0.33829866928608382 -0.75659956418928254 -0.86618059079307064 -0.06429486534601106 -6.2186333730035278e-06 0.00017181428140952958 0.064868654095448508 0.36595265584239783 -0.3806281878641643 -0.0041913732587746475 -0.60007846115443264 0.85380471416107273 -0.97944844994608715 0.00023576299313361315 -0.60435213236078311 0.41633401853994401 -0.31965876434850843 0.19338218425979145 0.63266270149605941 -0.80191400685501169 -0.59983548343657789 0.15097048083047951 0.44269907802932174 0.39445244120574902 0.34518705222133556 0.69305084283477492 -0.41918114428600134 0.32874025492406389 0.12683407402353342 -0.67802135145522002 
-0.48154411699354771 -0.19987610317054252 0.43935397341611782 0.30261866012708477 -0.32248249099937903 0.42204247700591196 -0.20003314111833706 0.19915775426455029 0.091119151607125304 0.3865715792714125 0.56135850686661093 -0.051418265762934498 0.80011899118829821 -0.6023882312495622 0.48538103007178951 0.17035681892737611 -0.64724497025252425 -0.0056914775480171017 -0.23351974482479021 -0.44080030834935363 0.85281371440572595 0.79606662160044039 0.20039848958705261 0.30915712003950979 -0.012727577825560176 -0.0047175332732446121 0.35953317284449404 0.48567592957549921 -0.26368048247674641 0.035650180258697282 -0.24455873632798097 -0.23881979212919652 
0.41286720206869215 -0.00044371874848176676 -0.74274388339321662 0.20544106541078805 -0.3621998666774956 -0.69230096623434145 0.20025293480708187 0.0041784379790637278 0.059870591532630038 0.47379102493370628 0.8068561056245781 -0.27411629314475816 0.0038543609880426358 0.42125653101969512 0.43945012455529303 -0.44363396175868275 -0.18655974875935233 -0.011381158893516801 -0.7441261455223197 0.36713256227314572 0.9165370796228971 -0.39034385862962945 0.60080396302946648 -0.037676373044166891 -0.20074627521890015 -0.7489760771056222 0.24770839687840138 0.095311942365796015 0.55197141243185199 0.03414352258054365 0.86598519911230476 -0.2540564347347678 
1.3868520507369329 -0.39687780448546028 -0.060846812955130718 0.28737141007799055 -0.1004177001733194 0.11636048497281122 -0.79982790498991974 -0.19142638417201832 0.45501622381518103 0.59529372676502801 -0.38184921684349599 -0.86301839040106543 -0.59282577587017282 -0.33383452212404713 -0.20179655927254336 -0.37034811380089283 -0.4443091103061072 0.36330560993128314 -0.11138286834727623 -0.4009113292083194 0.5982378789976952 0.21755194156576615 0.19671518151394907 0.088221745064881951 0.21586161688615188 0.90645138082869581 -0.99023583209660604 -0.14917742482055846 -0.86276785105344889 -0.60171649116550152 0.15850155568046467 -0.65655049056145498 
0.3161555919820328 -0.19186915443368155 0.55730517631693355 -0.16868386028633259 -0.29202656868318805 0.58025790143582834 0.80087177978634083 0.029056790320523603 0.65769127232160607 0.083770006334666289 0.97156555342859685 -0.64855031890690007 0.0049752479986219086 -1.2117661179464831 0.30048238361034929 0.6039465866792767 -0.71363133423652103 -0.27425882464418277 -0.057855217244250842 -0.32677285470180306 0.24223735373654304 0.059584345171298736 -0.79826853853851465 0.14806282405013538 0.60782597139227756 0.031293021030375172 -0.46066961323753269 0.23862857353746431 -0.76300995849943332 -0.18405043048310293 1.1265321232853269 -0.15355071578427493 
